-0.0189
0.0791
0.1543
0.1399
-0.2109
-0.1422
-0.1243
0.2225
0.2718
-0.0610
-0.3123
-0.0006
0.1204
-0.0782
-0.0459
-0.0171
-0.1773
0.1134
0.0313
0.0827
-0.1070
0.1851
0.0171
-0.0006
-0.0822
0.0104
-0.0130
0.0499
0.0728
0.0134
0.0099
-0.1890
0.1123
-0.0140
-0.2362
-0.0853
0.0023
0.4161
0.0924
-0.0525
-0.0331
-0.2956
0.3337
0.1986
-0.0495
0.0557
-0.4012
0.0018
0.1201
0.0638
0.2112
-0.3492
-0.1211
0.0658
-0.0268
-0.2734
-0.1503
0.3374
0.2621
-0.1333
-0.0619
0.3320
0.4008
-0.0750
-0.1328
-0.0376
0.0707
-0.1488
-0.3190
0.1641
-0.0241
0.0369
0.0624
-0.0138
-0.0494
0.0137
-0.0226
0.3414
0.0949
0.1212
0.0277
-0.1447
0.0693
0.0064
-0.1076
-0.0951
-0.2517
-0.4811
-0.2372
-0.1127
0.1505
0.1647
-0.0736
0.1404
0.1708
-0.0020
0.0394
0.2912
-0.0852
-0.1525
-0.1989
0.1222
0.0785
0.0967
0.0635
0.1743
0.0230
-0.1486
-0.1710
0.1405
-0.0104
-0.0697
-0.2002
0.1551
0.1018
-0.1408
-0.1505
-0.0918
0.1369
0.1036
-0.1398
0.0827
0.1644
0.1666
0.0014
0.0411
-0.1498
0.1255
0.1057
-0.1685
-0.1183
-0.0626
0.2593
0.2837
0.0818
-0.0242
0.2532
0.1268
0.0878
-0.1270
0.0335
0.1762
-0.2086
-0.0666
0.1374
-0.1554
0.1096
-0.0914
0.0074
-0.0565