0.5199800
-0.0984460
-0.1355400
-0.7606300
0.0477160
0.2343800
-0.2383800
-0.1925900
-0.2252600
0.2100600
0.2685300
0.0997840
-0.1445100
0.0628870
0.1224900
0.3263900
0.3443400
0.0411410
-0.1138300
0.0024090
0.0886970
0.0798230
0.0809410
-0.0204310
0.2270600
-0.2017600
-0.0398670
-0.2033900
-0.0577870
-0.0047299
-0.1135800
0.2987200
-0.0706480
0.1253400
-0.0587460
0.3367600
0.7038300
0.2192700
-0.1410700
-0.3223800
0.1855800
0.4701200
0.2065300
-0.0649000
-0.4867400
-0.1232500
-0.2746400
-0.2155700
0.0651410
-0.4943200
0.0634100
0.1186700
0.0404680
0.0172880
-0.4804400
0.0500400
0.2068800
0.5099700
0.4798900
-0.1836100
-0.1118200
0.0107620
0.2607900
0.5067700
0.0915370
-0.1447000
-0.4217900
-0.1731500
0.4941500
0.5712800
-0.0788350
-0.7741500
-0.8263600
-0.3335800
0.3375200
-0.0865870
-0.2527100
-0.1281500
0.3940900
0.0621510
-0.5076500
-0.3556400
0.1202500
0.2748700
0.0584200
-0.6788100
-0.2808300
0.2592300
0.2078600
-0.0633680
-0.4994700
0.0103370
0.3299400
0.1589400
-0.0614620
0.3890500
0.1172200
0.2390200
0.1927200
0.1578200
0.0531810
0.2522600
-0.3021500
-0.1830200
0.3727400
0.5836200
0.3923400
-0.3779000
-0.1012100
0.0712790
0.5081900
0.1178200
-0.3637900
-0.0365690
0.0483340
-0.0711620
-0.1019500
-0.4421000
-0.1940100
-0.0618750
-0.2101200
0.3767700
0.3313900
-0.0889880
-0.0696520
0.0436470
-0.3408900
-0.0631580
0.0229950
-0.0217260
-0.3002700
0.1050700
0.2287600
0.1304600
0.0630310
-0.2429600
0.3565100
0.0985310
0.0188630
-0.1119300
-0.2618500
0.5345700
0.3717400
-0.1591100
-0.2673600
-0.5837800
0.2703200
0.4459800
0.2742200
-0.3086900
-0.4523400
-0.0352480
-0.0574170
-0.3474600
-0.1689300
0.0717790
0.2300100
0.0411250
-0.1577300
0.1584600
0.0458790
-0.1639500
-0.0891240
0.0826360
0.4885000
-0.2698900
-0.2947400
-0.1703700
-0.1128200
0.2914200
-0.3663900
-0.0010944
0.2542200
0.1458300
0.4031100
0.1363400
0.6295400
0.0588880
-0.0570120
-0.1180700
0.2196400
-0.2224500
0.0750900
0.3606100
0.2686500
-0.1540300
-0.3488200
0.0338440
0.4939300
0.5371300
-0.2862100
-0.3072000
-0.0270490
0.0434660
0.4507500
-0.0380140
0.6076700
0.3360600
-0.5355700
-0.1673000
-0.0758800
0.1600200
-0.3077700
-0.1349700
0.1105200
-0.1113600
0.1931600
0.1864900
0.4384900
0.1504800
0.1551600
0.6284400
0.6498100
0.4182300
-0.1229600
0.2926600
0.0473290
-0.1359000
-0.1235800
-0.0386620
0.1265300
0.3612300
-0.1128600
0.2531100
-0.0859030
0.0388780
0.1241900
0.0273880
-0.0581550
-0.0838440
0.0035035
0.0557110
-0.0643780
-0.2209400
-0.3881800
-0.2645000
0.0945720
-0.2443400
-0.1544900
0.0746740
-0.2114600
0.1766500
0.1696000
-0.0372770
-0.1829300
0.0052596
0.1670600
0.1252000
-0.1991600
-0.0275560
0.1720300
0.3118500
-0.0658820
-0.0229390
0.2784800
0.1885300
0.2473900
0.1480300
0.0469680
0.2063700
-0.0921040
-0.1867700
-0.4379400
-0.3302600
0.0564690
-0.0347580
-0.3394200
-0.2692200
-0.4033000
-0.2445400
-0.1861700
-0.1046400
0.1294100
-0.0842650
-0.3509200
0.2275000
0.0814320
0.1682200
0.3514500
0.1001100
-0.1714800
0.1663100
0.5094000
0.0779190
-0.2212800
-0.0202300
0.3011300
-0.2070600
-0.0958990
0.1409900
-0.0486730
-0.3885500
-0.3738800
0.1951200
-0.0218710
-0.0518970
-0.1316000
-0.3676500
-0.0610300
-0.2899600
0.0070799
-0.0070010
0.2269900
0.2114500
0.2708000
-0.1960900
-0.2421300
-0.4155700
-0.2773900
0.3823400
-0.0779030
-0.1013700
-0.5808500
-0.5234000
0.1269900
0.2137500
0.3111500
0.1485400
0.1518300
0.1939800
0.2384700
0.4001700
0.1885600
0.3028800
-0.1384900
0.2263500
0.0797200
-0.1684100
-0.1733700
-0.1729800
0.0844280
-0.1675300
-0.2560300
0.0977150
0.1199400
-0.0215050
0.0273840
0.2072300
0.4124700
0.2504000
0.1456400
0.4989300
0.4141500
0.4405200
0.1898100
0.1323200
0.2633600
-0.0587770
-0.1876700
-0.0480490
-0.0787400
0.0142080
0.1746700
0.3574300
0.4021100
0.0156900
-0.2742100
-0.2511200
-0.1525800
0.4094900
0.1837100
0.0006867
0.0610880
-0.2990100
-0.4572200
-0.0744760
0.1265300
0.2044900
-0.1657400
-0.2691000
0.0368380
0.2952900
0.2614100
0.2274100
0.0483580
0.0243790
-0.0634490
0.0044586
0.0435280
-0.0587380
0.0098125
-0.0194730
0.2915100
0.3527200
0.0572710
-0.2957200
-0.4344800
-0.1322600
0.0722880
0.3917500
-0.3263700
0.0825070
0.2149400
0.3413000
0.4966400
-0.2205800
-0.3736400
-0.3325400
-0.3965800
-0.0799400
0.0062419
-0.3734400
-0.3279700
0.0387410
0.4613900
0.4437200
-0.0080735
-0.1895700
0.2414500
0.2970500
0.2451600
0.1300100
-0.2866600
-0.3024600
-0.2903400
-0.1144400
0.0196010
-0.1488400
-0.2078400
-0.0761840
-0.0298480
-0.0089718
0.1975000
0.1337800
0.0137230
-0.0616360
0.0312240
-0.1670300
-0.2535000
0.0165370
0.1643000
0.2024700
0.2264300
0.2184500
0.0879580
0.0868060
0.3905000
0.3356400
0.1583200
-0.0153380
0.0488160
0.1117900
-0.0814160
-0.0924970
-0.1059800
0.0739850
0.0270250
-0.2339500
-0.2423300
-0.3038200
0.5089800
0.4851900
0.5136300
0.2413700
0.0329830
0.1048600
-0.1189500
-0.3587700
-0.3753100
0.0221370
-0.0106190
-0.3296100
-0.5251500
-0.2877000
0.4082300
0.1228400
0.0378620
-0.0272610
0.1312600
0.2226800
0.2372000
0.0097869
0.0645320
0.3075700
-0.0799240
-0.3257300
0.0061338
-0.1461500
0.4362000
0.2596900
-0.2898200
-0.2131300
-0.5356700
0.1084000
0.1263400
-0.0380050
0.0182980
-0.1524200
0.2535400
-0.0559400
0.1327900
0.0354050
0.0304250
0.3292900
-0.0096466
-0.1265500
-0.3049800
-0.0235150
0.2108800
-0.4570400
0.0470410
0.0860290
-0.0226030
-0.0551490
0.0463140
-0.1610200
-0.1714300
0.0071472
0.2838100
0.1364000
-0.2157800
-0.2053100
-0.1361200
0.2471600
-0.0191400
-0.4063500
-0.3370100
-0.3461900
0.0698360
-0.1338100
-0.0068352
-0.2045300
-0.0731190
0.0241220
-0.1690100
-0.0608590
-0.1388400
-0.0473030
-0.1728200
-0.3704200
-0.2935800
0.1516900
0.4117600
0.1334700
-0.2874800
0.0001043
0.5432900
0.4687700
0.3756800
-0.2520200
0.2982700
0.3620600
0.2438200
0.1176000
-0.4928200
0.3655100
-0.0131510
0.1310800
0.0412250
-0.3009400
0.3012300
0.1184800
-0.1057200
0.1284700
0.2349500
-0.1515300
-0.3321400
-0.4105100
0.3047500
0.3382900
-0.2782700
-0.4208700
-0.5676900
0.4697600
0.0006813
-0.1437300
-0.3545000
0.1932700
0.1448800
-0.1731000
0.2437700
0.3414600
0.4731100
-0.4170800
0.2505500
-0.1448400
0.0448780
0.0555920
-0.1137100
-0.1401400
-0.1789000
0.1298700
-0.1737800
-0.1782300
0.2305600
-0.0354860
-0.0942960
-0.3183200
0.0269210
0.5154200
-0.1932000
-0.3421000
-0.3496400
0.4669400
0.3387700
-0.1642500
-0.1952000
0.0764300
0.5153800
0.2349400
0.2568400
-0.0006950
0.2112900
-0.0349300
0.1528300
-0.0737700
-0.2693900
0.0097758
-0.3238600
-0.0183770
0.1294100
-0.0487350
0.6129300
0.4715200
0.5527200
-0.1010400
-0.1338800
0.1978100
-0.2928400
-0.2194500
0.0581340
0.0391360
0.0563420
-0.3654400
-0.5522100
-0.4774400
-0.2809200
-0.5268900
-0.5221000
-0.1522600
0.1821300
0.1786700
0.3719200
0.0861750
-0.1315000
0.2709600
0.4590800
0.6795100
0.5816600
0.2161000
0.1297100
-0.2159000
-0.1056800
-0.1068300
-0.0401490
-0.0389990
-0.0245330
-0.1359300
-0.0947200
-0.0997480
-0.1704000
0.2972600
0.1040300
-0.1046400
-0.4941900
-0.3025500
0.2384600
0.1301700
0.3450800
0.3447500
-0.4441900
0.0070012
0.0939760
0.6487000
0.4488200
-0.0302000
-0.0120170
-0.0713200
0.1625900
-0.1032200
-0.2015000
-0.1864200
-0.2578500
0.2408600
0.2315600
0.3116100
0.3145300
-0.1204300
-0.4463800
-0.3930500
-0.0124130
-0.0547720
-0.1050900
-0.1254600
-0.1389000
0.1052800
0.1004100
-0.1082000
-0.3872400
-0.3031500
-0.1906200
-0.2582900
-0.2819000
-0.2377300
0.0743450
-0.1281000
-0.2525700
-0.3128300
-0.1650600
-0.0594450
0.1077800
-0.0536720
0.0398800
-0.1905600
-0.2837400
0.0634780
-0.2641100
0.3320600
0.5435300
0.5083100
0.6216900
0.2166500
0.0927360
-0.0456790
-0.0448320
0.3585400
-0.1618100
-0.4526000
-0.3009400
-0.0259520
0.0978590
0.1429200
0.3244600
0.4862600
0.3555500
0.1395000
0.1239300
-0.1872400
-0.2279600
-0.4380600
-0.0675080
0.0491200
-0.2114400
-0.3334400
-0.2923800
0.1611300
0.5825300
0.4833700
0.4952800
0.4381500
-0.0470640
0.1506900
0.2789900
0.3715400
0.2266000
-0.3418600
-0.3843300
-0.4248100
-0.3046600
-0.0358190
0.3409900
0.2994100
0.1848700
-0.3502700
-0.5985100
-0.1078400
0.1595600
-0.0914650
-0.0647380
-0.5932000
-0.5078200
-0.0547040
-0.1333200
0.2718000
-0.3039700
-0.3495700
-0.3343500
-0.3532500
-0.0528870
0.1782200
0.3833800
0.2563000
0.1218600
-0.0557540
0.2506200
0.2663500
0.0304120
-0.1052000
-0.3840800
-0.2129600
0.1321800
-0.1316200
-0.1529700
-0.1909200
0.0246560
0.1798900
-0.2821700
-0.3721900
-0.2230800
0.0401270
0.1817900
-0.1351300
-0.2060600
0.0445400
0.2753600
0.2096400
0.2350600
0.2788000
0.2860700
0.1469000
-0.4608800
-0.0715260
0.1098800
0.2390400
-0.0136130
-0.2570800
0.0786840
0.1600600
0.1806900
-0.0153250
-0.4208600
-0.3553800
0.3228700
0.0008296
-0.1832300
-0.4257900
-0.3515400
0.3638400
0.1977900
0.0974790
0.0293100
0.1533100
0.2346600
0.5106500
0.4532700
-0.0282670
0.0708450
0.0025982
0.1626700
0.2183500
0.1463400
0.0888490
-0.3257500
0.0891780
0.1804900
0.1379200
0.2607000
-0.2901500
-0.1890500
0.1689200
-0.1154900
0.1584100
0.0478750
-0.1179800
-0.0423320
0.2546100
-0.0333710
-0.1861000
-0.1170800
-0.1489000
0.0262040
0.3586200
0.0942260
-0.0674200
-0.1650100
0.0298590
-0.1833300
0.1212300
0.2453400
-0.0547420
-0.2823700
-0.1792100
-0.2697400
0.1048600
-0.0231160
-0.0564980
-0.1142400
-0.4963900
-0.0626300
-0.0745780
0.0168710
0.0317290
-0.1534600
0.1058100
0.0860610
-0.4379200
-0.2297800
0.0493160
0.3809100
0.3101500
-0.3716500
-0.0788000
-0.0810010
-0.0623960
0.2458200
0.1878600
-0.2166200
-0.3672000
-0.2577600
0.2916700
0.2605100
0.2410400
-0.1179000
-0.4772600
-0.1985600
0.5373800
0.2433200
0.0610150
-0.2251600
-0.2553500
0.2154800
0.0040995
0.0522690
0.1995000
0.0251350
0.1791400
-0.0520400
0.1982300
0.0462210
-0.1364400
-0.1330000
-0.3803800
-0.3243900
-0.0803860
-0.0820650
0.0973810
0.3415300
0.3373600
0.5043000
0.1611100
0.5005100
0.3205500
0.2209400
0.4375200
0.2455200
-0.1559000
-0.0744030
0.0284990
-0.1109200
0.1105300
-0.1016800
-0.0752470
-0.2385500
-0.4196700
-0.5135000
0.2038500
0.1999900
-0.0583810
-0.2353400
0.1434400
-0.4390400
-0.3111300
0.0073997
0.4558200
0.2771700
-0.3042400
-0.0080559
0.0924090
0.1326100
0.1072000
0.0751440
-0.2759700
0.0102650
-0.1102100
-0.1215200
0.0916960
-0.1086800
-0.1391400
-0.1174400
0.0948350
0.0829330
-0.1059900
-0.0404670
0.2061200
0.2267600
0.0769780
0.1816000
0.0332580
-0.2296600
-0.3779500
0.0142670
-0.1006400
-0.4059200
-0.3820500
-0.0115440
-0.0060629
-0.1727100
0.1248000
0.0431590
0.0872010
0.1846900
0.2547900
0.0268200
0.0418090
0.0964210
0.0968580
0.0589130
-0.2084400
0.0306450
0.0354550
0.1032300
0.0904510
0.0187990
0.1812100
0.1611400
0.0008693
-0.4070200
-0.3845400
0.0172310
0.0465680
0.0633960
-0.1236900
-0.2606400
-0.1534400
0.1752400
0.1620700
0.0185620
0.4723700
0.7462500
0.1494500
0.0127360
0.5068900
-0.0598640
-0.4503400
-0.0838070
-0.0452160
-0.1065200
-0.4674700
-0.2698900
-0.0061903
-0.1157300
-0.2663300
0.0025347
0.2420800
0.0205340
0.1803500
0.1060200
0.1073700
-0.1873100
0.0428250
0.0623760
-0.1897100
-0.5546900
-0.2562300
0.2065100
-0.3923300
-0.4195600
0.1956600
0.6305200
0.4529200
0.1298300
0.5207300
0.6947200
-0.0571840
-0.4984700
0.3288200
-0.2422600
-0.4574000
-0.5154400
-0.1120500
0.0814130
-0.3479600
-0.2085100
0.0861870
0.2062400
0.0633250
-0.2208400
-0.2293100
-0.1521700
0.1408400
-0.0808320
0.0962900
0.0542970
0.0077281
-0.2537800
-0.2673100
-0.0921920
-0.1647000
-0.0447940
-0.1664700
-0.1997200
-0.0251520
-0.1047600
-0.1218900
-0.1572700
-0.2733700
-0.2105500
0.0026531
0.1047900
-0.0683190
-0.1066600
-0.2269100
-0.2369700
-0.1647500
0.1488200
0.1043500
-0.0231650
-0.3750000
-0.4989700
-0.0489840
0.1770300
0.3825700
-0.2966900
-0.4454800
-0.0361370
-0.4719600
0.2424700
0.0949540
-0.2052300
0.1508400
-0.1204300
0.0135070
-0.0018558
-0.1139200
0.0236920
0.2681800
0.0825410
-0.1373700
-0.0948090
-0.1539200
0.0877220
0.2739600
-0.0243690
-0.0333670
-0.4319100
0.0966320
0.4370000
0.4020800
0.3817000
-0.3286800
0.0323620
0.5447400
0.4052600
0.6993500
0.2895700
-0.1143900
-0.0204670
0.0678460
0.0407300
0.0872510
-0.0276850
0.1429200
0.0756690
0.3633300
-0.0863920
0.3164100
0.2961500
0.0107240
0.2360500
0.1552800
0.0080331
0.3302800
0.0519860
-0.1995400
0.1757900
-0.3041200
0.1134600
0.3687200
-0.2805300
-0.2532500
0.1817000
0.2919600
0.1443400
-0.2810100
0.3154700
0.2453300
-0.0538180
0.1658600
-0.1709400
0.1713700
-0.0096106
-0.1793700
0.1803300
0.0766650
0.0989210
-0.1147300
-0.2497700
-0.0366430
0.1507500
0.0017684
0.0634560
-0.2606800
-0.0946550
-0.2081400
-0.4099000
-0.1201000
0.0591100
0.3577600
0.0399570
-0.0785570
0.1361900
-0.0881850
0.0341240
0.2091100
0.0467820
0.1994900
-0.2275700
-0.3179500
0.2688100
0.2379600
0.1417100
-0.0598170
-0.4045100
0.0342940
0.3082000
0.2615600
0.1605700
-0.3975400
-0.2146500
-0.2352000
0.1338300
-0.0511050
0.0106390
-0.0568640
0.2352400
0.1206200
0.1007000
-0.0183930
0.1087100
0.1679900
-0.0437720
-0.0951550
0.1464200
0.2605300
-0.0173670
-0.0053452
-0.0146130
0.0525030
-0.3223100
-0.4254900
-0.1123700
-0.0584390
-0.5747500
-0.7829200
-0.3863300
-0.1880700
-0.0280940
-0.0087746
0.3336200
0.0061639
0.2352800
0.2623200
0.1762000
0.0051360
-0.3106400
0.3103300
0.3367200
0.1151200
-0.3134900
-0.1667300
0.0724440
-0.0383810
-0.3613100
-0.3456400
-0.2411200
-0.1167100
-0.4770600
-0.1990000
0.1927200
0.0968580
0.4484200
0.1596700
-0.1063300
0.1591300
0.1194900
0.2403300
0.2548600
0.1387300
0.1594900
0.1297400
-0.3033600
-0.0406400
0.4081400
0.1015200
0.3329900
-0.2109700
-0.1929400
-0.1767700
0.1637400
0.2025900
-0.1951800
-0.4741300
-0.2821200
0.3240000
0.4020700
-0.3143900
-0.0356090
-0.2626400
-0.1530500
-0.0390100
0.2141100
0.0341410
-0.3147100
-0.3506300
0.1143600
-0.0552080
0.0863360
-0.0008298
0.0482180
0.1859300
0.3207300
0.4473700
0.1725400
-0.2205600
-0.3386100
0.4508800
0.5721900
0.2234500
-0.2551500
-0.3804200
0.1676500
-0.0487630
0.1465800
-0.1605600
-0.1590700
-0.0912300
-0.0307740
0.2066100
0.1928100
0.0291690
-0.2543100
0.0616680
0.6070400
0.3000600
0.1061600
-0.4551000
-0.4668300
-0.4841700
-0.2960400
0.1050900
-0.1322100
0.0739480
0.1320400
0.3896300
0.1061600
-0.3531600
-0.0885160
-0.1727700
0.1094300
-0.2706300
0.1331100
-0.1236500
-0.2101400
0.0141750
0.0780180
0.0109350
0.3358300
0.5631200
0.5635900
0.1353100
0.2822100
0.3286800
0.3375700
-0.0583020
-0.3406100
-0.2043700
-0.3988300
-0.5663600
-0.5184100
-0.3763200
-0.3186200
-0.5858300
-0.3926500
-0.2023000
-0.1623800
-0.0508800
-0.0595520
0.2342600
0.5268100
0.1170700
-0.0399490
0.1399800
0.1290000
-0.0731420
-0.5663800
0.4258400
0.5178200
0.2047000
0.3547500
0.0058013
0.0671680
0.1202200
0.0002544
0.1832700
0.0649970
-0.0408320
0.0397010
0.0038508
-0.0464640
-0.2187800
0.5375800
0.1958300
0.0572800
0.0343830
-0.2464500
0.3734500
0.0794410
-0.0341710
0.1688800
0.0364170
0.1929900
-0.0330570
-0.1844100
0.0219310
0.1223100
-0.2961200
-0.0900310
-0.1620000
-0.1311000
-0.0827220
0.1340800
-0.1724200
-0.1033900
-0.2227500
0.1094100
-0.1015800
0.0624550
0.4000700
0.4203600
0.2928900
-0.0333780
0.3141500
0.0850960
-0.3653400
-0.3152300
-0.0653320
-0.0908210
-0.2367800
-0.1009400
0.0703830
-0.2553100
-0.2368200
-0.1082600
0.2715200
0.1053200
-0.0144300
0.0071206
0.2000400
0.2379800
0.3446500
0.2649900
0.3574800
0.3027600
0.0402820
-0.2591900
0.1428700
0.0672840
-0.2474200
-0.5296700
-0.4225700
-0.1004500
-0.3065000
-0.3507800
-0.1760600
0.1337800
-0.0986420
-0.2008600
-0.2591800
-0.3590700
-0.0401860
-0.3032800
-0.1233900
-0.1167600
0.0996960
0.5261200
0.1727800
0.4357700
0.2695800
0.2194100
0.2563600
0.2090400
0.0198100
-0.1472600
0.0737720
-0.2829500
-0.2225900
-0.0524660
0.0416180
0.0946370
-0.1210000
-0.0676390
0.0471500
-0.0291340
-0.1725700
-0.1005700
-0.0308020
0.0485950
0.0290440
-0.1123400
-0.1285100
0.0956190
0.2341500
0.2843500
0.4572900
0.3149300
0.2264500
0.0994360
-0.0828460
-0.2164000
0.0126760
-0.2925200
-0.3205400
-0.2964200
-0.2418400
0.0419710
-0.1195900
-0.1245000
0.0087665
-0.0648130
-0.1777800
0.2448200
-0.5126400
-0.2889600
-0.3055100
-0.3209500
0.1494100
-0.6935700
-0.3374800
0.1682100
0.2311900
0.1014800
-0.4251000
0.3169000
0.1329400
0.1836400
0.0813790
0.0033254
0.4327000
0.1192900
0.0307830
0.2059900
0.1631200
0.1278400
-0.0343860
-0.2260300
-0.0200960
-0.0514350
0.2710900
-0.0235010
-0.0928910
-0.0046397
0.1973400
0.2190000
0.1186900
0.1301500
0.1356300
0.3570400
0.0875680
0.3102000
0.2888200
0.1803300
0.0541100
0.0181600
0.1846500
-0.0127340
-0.2342700
-0.4844700
-0.1663100
0.1200100
-0.0284920
0.0654220
-0.0072015
0.1385000
-0.2856900
-0.3273600
-0.0630410
0.0339560
0.1797200
-0.1404300
-0.1723500
-0.3335100
-0.1869400
0.4101200
-0.3829600
-0.3179800
-0.4941900
0.0288690
-0.1468300
-0.5776600
-0.4086800
-0.2942400
0.0252420
-0.3767000
-0.2233800
-0.3909100
-0.1896200
0.1363800
0.4448300
0.3749500
0.1984300
0.0175980
0.5060600
0.3810700
0.2174800
-0.1028600
0.1481000
0.4893100
0.2639000
0.2201000
-0.1860700
0.4556100
0.4396400
0.1893200
0.1914900
-0.0729840
0.2376000
0.2549000
0.3539700
0.2527100
-0.1570300
0.0370380
-0.3078400
0.0945320
0.1961900
-0.2482500
0.0056837
-0.4192900
0.0761970
-0.0874930
-0.0864440
-0.0413200
0.0279930
-0.1676300
-0.2157000
-0.0485930
0.0340890
-0.0185980
-0.3026200
-0.0297520
0.0449510
0.2369900
-0.3451800
0.0724980
0.1442900
-0.0004029
-0.1915400
0.0442830
0.1811200
0.1073900
0.1307200
-0.3262600
-0.0541420
0.3221100
0.3323500
0.1440800
-0.1396000
0.2728900
0.4529400
-0.1319900
-0.2809800
0.0656310
0.4477200
-0.0795500
-0.3861000
0.1050200
0.4179700
0.0013384
-0.4073000
-0.2082500
0.0794350
0.0581490
0.1815700
0.2141000
-0.0460330
-0.1229600
-0.0425510
0.0346200
-0.0443160
-0.0988110
-0.0622350
-0.1401300
-0.2743700
0.0486170
0.4180600
0.3721700
-0.2711100
-0.1703000
0.0172970
0.1070500
0.4695100
-0.0669590
-0.1265900
-0.4297000
-0.0545880
0.1361900
-0.1293900
-0.1136500
-0.0944620
-0.1743200
-0.0883420
-0.1794700
-0.2286900
-0.1913500
-0.0521440
-0.1169500
-0.1086600
0.1501700
0.4431800
0.1701000
-0.0172050
0.1107800
0.0637530
0.0000239
0.3031400
-0.0954660
0.2132200
-0.0687720
-0.2394200
0.1044500
-0.1044900
0.0196630
0.1659900
0.2329500
0.2324700
0.1207300
-0.0952110
0.1143100
0.1916500
0.4805800
0.1323600
0.1641400
-0.0464840
0.2103900
0.2907600
0.0263060
-0.0153340
-0.1095900
-0.3196600
-0.5499700
-0.1575600
0.2971800
0.0989970
-0.0928370
-0.3643900
-0.1494700
-0.0164310
-0.2625000
-0.1745100
-0.3646100
-0.4841100
-0.2851000
-0.2166700
0.0881230
0.1397300
-0.0465930
-0.2063500
-0.0155550
0.5066900
0.2723700
-0.2486300
-0.2558800
-0.0400900
0.4187000
0.5229600
0.0263220
0.1233600
0.2081400
0.5468800
0.3878000
-0.0303370
0.0945770
0.0723190
0.3296000
0.1317400
-0.0424520
0.1800200
0.0096432
0.0978420
0.1995400
-0.0023230
-0.0512530
-0.3416500
-0.2584200
-0.0319310
0.1141100
-0.1788000
-0.5840300
-0.4793500
-0.3160300
-0.0351720
0.0990200
-0.1956300
-0.2538400
0.2356900
0.5151900
-0.3339600
-0.0842940
-0.1668400
-0.0919040
-0.1431900
-0.0019326
-0.0949950
-0.2526700
-0.1103700
-0.0233000
0.3102800
0.1971800
-0.0924770
-0.2593900
-0.2276200
0.2938100
0.3260500
0.2675100
0.0544280
-0.1290100
0.1366500
0.0927850
0.0791410
0.3247800
0.1122100
0.3042700
0.0396550
-0.1252800
-0.4011100
-0.0342500
0.4135300
0.2135100
0.1746800
-0.4856000
-0.4250800
0.3158300
0.1012800
0.1733300
-0.3013700
-0.2597900
0.2337100
0.2355700
0.2644700
-0.2473600
-0.1512200
0.1950800
0.1890900
0.0980520
0.1933700
-0.0248940
0.1768300
0.5244800
0.3268300
-0.0497970
-0.0053147
-0.1738500
0.2311000
0.2755700
-0.1912900
-0.0448180
-0.2370300
-0.5621900
-0.1050700
-0.2192200
0.1499600
-0.2146200
-0.0169750
0.1470400
0.1902200
0.0140800
0.0667810
0.3249300
0.1381500
-0.0645690
0.0397900
-0.4969400
-0.0406790
0.0660910
0.2580900
0.2159200
-0.3692100
-0.3313500
-0.0797880
0.1856900
0.0162680
-0.0951210
-0.3407800
-0.2591000
0.1562200
-0.1643500
0.1277800
0.3249400
0.0224270
-0.1896400
0.1122500
0.0094658
0.3508800
0.1614400
-0.1002900
0.4220200
-0.0599130
-0.2039300
-0.1857100
-0.0704400
0.0269000
-0.0986260
-0.3943200
-0.1056200
0.2968500
0.3688800
-0.1938100
-0.1294900
0.4434600
0.6301300
0.1215600
0.1210800
0.0360440
-0.0703500
0.1601200
-0.0656430
0.0629920
-0.1208500
-0.0767420
0.2516400
0.0356810
-0.0675660
0.3586400
0.4391400
0.1202400
0.3790900
-0.2830800
0.2046400
-0.1405500
-0.2881100
-0.4332600
-0.3487800
-0.3911600
-0.5622700
-0.4455600
0.0153110
0.3827700
0.3306700
-0.0446590
0.2839900
0.6568800
0.5585900
0.3602200
-0.0183770
-0.0222320
-0.0497180
-0.2778700
-0.0687540
0.3541000
0.1884600
-0.1143400
-0.2676100
-0.0597250
0.0600830
0.1277300
0.4965700
-0.1920700
-0.1069100
-0.0932840
0.3391300
0.3368400
-0.0975490
-0.3443000
-0.4653400
-0.5465000
-0.2829000
-0.1370300
-0.1096600
0.0640000
0.3199400
0.3561500
-0.0427470
0.2964100
0.0747060
0.2005800
0.1947700
0.3666300
0.2271500
-0.2813300
-0.0566730
0.1067100
-0.0428520
-0.2370400
-0.2358900
-0.0052706
-0.1006100
-0.1931700
-0.1047200
-0.1382800
0.2781000
-0.1887500
-0.1262000
0.1366700
0.4245700
0.2729800
-0.0667500
0.2586000
0.3821900
-0.1916200
-0.2288600
-0.1734500
-0.1729400
-0.4133000
-0.3253000
-0.2085000
-0.0086850
-0.3487000
-0.3783800
-0.0647560
0.0661780
0.0249700
-0.0766100
0.1152800
0.2561600
0.1532700
0.1029600
0.0393050
0.3215200
0.1674900
0.3352400
0.1010200
-0.1923300
-0.0158940
-0.1771000
-0.2167900
-0.1899000
0.3023800
0.0682750
-0.1626200
-0.1538200
-0.3161400
0.0014611
0.0309470
0.1476500
0.0722640
-0.1742200
-0.1265100
0.0120280
0.2286900
0.2338600
0.0927570
-0.1026800
0.0253970
0.0224280
0.1092500
-0.0372320
0.0511570
0.0328700
-0.1130100
0.0166840
-0.2118100
-0.0529430
-0.3890700
-0.2826400
-0.1492400
-0.1431700
-0.2993100
-0.0659290
-0.1056400
0.0330770
0.3304000
-0.1079000
-0.0521000
0.1657800
0.4438900
0.4529600
-0.1988400
-0.0258880
0.2056200
0.3717300
0.2797900
0.4861700
0.3700800
0.1095800
0.4912800
0.2773800
0.4995600
0.2252900
0.0523220
0.2628100
-0.1480200
-0.0338690
-0.2106200
-0.1390700
-0.0299250
-0.3439400
-0.4320000
-0.5558300
-0.2505800
-0.3675700
-0.1626100
0.1492200
-0.0497730
0.0748430
-0.0242690
0.5693300
0.2708800
0.3057500
0.2634600
0.2438100
0.1108000
0.0822480
0.2731900
0.1582900
0.2611600
0.0440940
0.2527600
0.0731810
0.1210600
-0.1652600
-0.1506700
0.0295230
-0.1964000
-0.1415700
-0.3327400
-0.0888280
-0.6014400
-0.1797500
-0.2923700
-0.2616000
0.3582600
0.3060900
0.2658400
0.3161300
0.2906000
-0.3146900
0.0333120
-0.2190000
0.2619100
0.4685700
0.1585700
-0.1803000
-0.2739400
-0.3200900
0.1758800
0.1636300
-0.1889900
-0.4409800
-0.5718900
0.0104640
-0.0485400
0.3027000
0.1994500
-0.2797200
-0.1991300
-0.0690200
0.3568600
0.3861800
0.0887030
0.1091300
0.1221100
-0.5676200
-0.1765200
0.1297700
0.3448400
0.1578900
-0.4427200
-0.7116500
-0.5199300
0.1788900
-0.4431800
0.5161000
-0.0036794
-0.1606700
-0.2598200
-0.4346800
0.4747300
0.4888000
0.1996800
-0.0151550
-0.0984780
-0.0928100
-0.2806800
-0.0874090
-0.0013287
-0.1218700
0.2666000
-0.1219400
-0.2777900
-0.2966100
-0.2401200
0.4291900
0.5808500
0.3129700
-0.1760400
-0.7046300
-0.1848700
0.4689000
0.7340900
0.2326400
-0.4614800
-0.4984600
-0.5593200
0.1232700
0.3872400
0.2302000
-0.1216400
-0.0675600
-0.1368900
-0.1330900
0.2860200
-0.2872800
-0.0200890
0.0961460
0.0170360
-0.0837190
-0.1376500
-0.2126500
-0.1675700
0.0693250
0.0630640
0.1304900
0.1425100
-0.0102500
0.1740400
0.0046229
-0.0707530
0.2327800
0.4392400
0.2657800
0.0817430
0.2600000
0.1934200
0.1112800
-0.0191750
-0.0500350
0.1378500
0.2960200
0.0505090
-0.0046791
0.1700200
0.1878900
0.4417200
0.2575300
0.1919500
0.4319900
-0.4118200
-0.2975300
0.0100470
-0.0053362
0.2114400
0.2433200
-0.1819700
-0.0335130
-0.1705800
-0.0130500
0.3832600
-0.0638470
-0.2471500
-0.2077300
0.0056632
0.1868000
0.5294800
0.3750200
-0.1911600
-0.0953530
-0.5407300
0.0511460
0.2436000
0.3179300
0.0562320
-0.0978510
-0.2652600
0.0714780
-0.0737410
0.0273110
-0.0681230
-0.3138000
-0.0378420
0.0937960
-0.0687360
0.2154200
-0.0129340
0.2746600
0.1835100
0.0807400
0.1111500
0.0498130
0.1855900
-0.1879700
-0.0965990
-0.2585600
-0.2546500
0.0484890
-0.2894100
-0.3179800
-0.3184000
-0.3910300
-0.0164840
-0.3739300
-0.2817100
-0.2543800
-0.3556300
0.0007621
-0.5408500
-0.1283600
0.0816520
-0.1101700
0.1100600
0.3961400
0.2875300
-0.1059800
-0.0413180
0.2139700
0.0889320
-0.1578700
0.0412390
-0.0073012
0.0225850
-0.2454800
-0.2553300
0.1076100
-0.2944500
-0.1353700
-0.4508400
-0.1475100
0.0534650
-0.2774400
-0.2942900
-0.3486200
0.2251100
0.0649910
-0.2333100
0.0829470
0.1009000
-0.0499260
0.1823400
-0.0516370
-0.1238900
-0.1921000
-0.3291300
0.0776540
0.2057200
-0.0041712
-0.1871900
-0.1606300
-0.0974920
0.1682900
-0.2139800
-0.0275240
-0.1490200
0.0901100
0.3624800
-0.1260100
-0.1815300
-0.1982300
0.0299800
0.0854210
-0.1442700
0.1450800
0.0294930
0.1815000
0.2763800
0.1699400
0.3778400
0.2679300
0.2985200
0.2360200
0.1337400
0.1068800
0.3571300
0.3632700
0.1839300
0.2023100
0.3120500
0.3341800
0.3634400
0.1203800
0.1941600
0.2992300
0.1528400
0.2127500
0.1060000
0.0491940
0.1274000
0.0614570
0.2349300
-0.1213800
-0.1318200
-0.0812740
-0.0685750
0.0282970
-0.1120200
0.2307900
0.1046200
0.1322400
0.0941800
-0.1465000
0.1916500
0.0914530
-0.0480330
0.2127600
-0.1776700
-0.0237660
0.0670230
0.0341220
0.2467500
0.0315300
0.0227570
0.0318720
0.0054555
0.2513500
0.1072300
-0.1066300
-0.2415300
-0.0618520
0.2595700
0.0972500
-0.1881500
-0.2266700
0.1233700
0.0697240
0.1301500
-0.1825100
-0.0811190
0.3406000
0.2205500
0.4369200
-0.1022700
-0.1629600
0.2692600
