-0.0624  -0.2472  -0.2074   0.2106  -0.2636  -0.0931  -0.2016  -0.1820 
0.2949   0.2128   0.1151   0.0700  -0.3205   0.1267  -0.1063   0.0568 
-0.4688   0.0039  -0.1853  -0.1883  -0.1726   0.0270  -0.1864  -0.0442 
-0.1156  -0.1797   0.0645   0.2465  -0.0174  -0.2184   0.2024   0.2336 
0.1262   0.0851  -0.1749  -0.0597  -0.1633   0.1280  -0.0423  -0.0071 
-0.1154  -0.1966  -0.0613   0.1727  -0.0887  -0.4311  -0.1680  -0.0061 
-0.0961   0.0248   0.2552  -0.1167   0.2252   0.1302   0.0562   0.1893 
0.1463   0.1219   0.1678   0.1516   0.2387  -0.3147  -0.1511   0.2781 
0.2917   0.0013  -0.1501  -0.1014  -0.1227  -0.3231  -0.1252  -0.1151 
-0.1259   0.0780   0.3378   0.0562   0.2684   0.0225  -0.1852  -0.1159 
-0.1327   0.1881   0.4276  -0.1607  -0.1309   0.0384   0.2431   0.1489 
 0.2704   0.1348   0.1468   0.0279   0.2736   0.1840  -0.1795   0.2062 
 -0.2694   0.0053   0.1421   0.3376   0.2785  -0.1790  -0.1091  -0.1683 
 0.0836  -0.1842  -0.2145  -0.3152  -0.1881   0.1124   0.1693  -0.2175 
0.0807   0.1449  -0.0745   0.0469   0.0308  -0.1805  -0.2105  -0.1057