0.3679500
-0.0863050
0.3898700
-0.1314900
-0.0738700
-0.4709300
0.1878700
0.2128000
0.2074200
-0.2662000
-0.1071100
0.1353200
0.2723100
0.0057450
-0.4584000
0.4678500
-0.1578400
-0.1180800
-0.4051000
-0.3195500
-0.2461800
-0.2537700
-0.5888500
-0.1935700
0.0392130
0.4317700
-0.2058000
-0.0483980
0.5450300
-0.1538700
-0.5027000
-0.1378400
0.0318870
0.1254400
-0.1446200
-0.0751890
-0.1408200
-0.1323200
-0.0824160
0.1774700
-0.1684200
0.3708000
0.5091300
0.2807700
0.1564900
-0.2863000
-0.0953980
0.6565800
0.3347300
-0.1744300
0.0129030
-0.7388100
-0.1689700
-0.2529600
-0.3776000
-0.0225530
-0.2682700
-0.3475400
0.0358300
-0.1260400
0.5447300
0.5918500
-0.1122400
-0.0194610
-0.1593600
0.2193600
0.5117100
0.1458800
0.1127300
0.2861600
0.1008200
-0.4484700
-0.2665300
-0.1308300
0.2136300
-0.1362000
-0.4526700
-0.7420300
-0.2789300
0.2101700
-0.3389000
-0.4382100
-0.0556550
0.0162200
0.1981200
-0.3260000
-0.2777400
0.1819300
-0.1535200
-0.0866880
0.1348500
-0.3642600
-0.2152100
-0.2429800
0.0290590
-0.1386200
-0.1201900
0.0656560
0.1505300
0.1155600
0.2360600
-0.1437400
-0.1161300
-0.5078700
-0.3546700
0.3585500
0.7648800
0.4728800
-0.4761000
0.1430100
0.5161500
0.5850800
-0.1805100
-0.1199900
0.5847900
0.0991960
-0.0136710
0.1246900
-0.0007401
0.2931700
0.5350300
0.4085300
-0.3084800
-0.0979550
-0.6070200
0.2570200
-0.2873000
-0.0041261
-0.1841300
0.0529710
0.2689100
0.4413300
-0.2438500
-0.4835900
-0.0074771
-0.0439980
0.7585900
-0.0452250
-0.2561100
-0.0001883
0.0933110
0.2314200
0.5781900
0.4415200
0.2059500
0.2043900
-0.6941800
-0.0707590
0.7610400
-0.2360900
-0.2491700
-0.3392000
-0.0239210
0.7657500
0.4059600
-0.1286900
-0.1029700
0.2071300
0.4985300
-0.1176700
0.0944500
-0.4877100
-0.0445120
0.1492500
0.1626400
-0.1127400
0.0784290
0.2723600
-0.1135500
-0.1393600
-0.3640800
0.5800900
0.1261000
-0.0038302
-0.0593520
0.2358800
0.0646450
-0.3823500
-0.2024600
0.1039200
0.1369400
0.1417300
-0.0205070
-0.1910900
-0.1452800
0.3298700
0.3227600
0.0962200
-0.1989700
-0.0187270
0.3729800
0.0916460
0.0134210
0.0030752
0.1297700
0.0301680
-0.2511100
-0.3166400
0.2054700
-0.3075600
-0.2384500
-0.1082100
0.1784400
0.0813250
0.1096100
0.3468700
0.1291800
-0.0259160
0.3315100
-0.0609140
-0.0030005
-0.0216200
0.2590700
0.2670600
0.1237000
0.2710600
0.8015701
0.5509000
0.0799740
0.2162800
0.5993500
0.1905700
-0.4884800
-0.2358700
0.0174170
-0.2784300
-0.2114000
-0.1719700
-0.2037400
-0.2607000
0.1194000
0.0483290
-0.2352200
0.0408040
-0.1491900
0.6706500
0.1324600
-0.2539800
0.0342130
0.4525900
-0.1447100
-0.5398400
-0.6580300
-0.3427700
-0.2231800
-0.1607300
-0.2457200
-0.4425200
-0.2955300
-0.2884300
-0.0334690
0.0434970
-0.1626400
-0.2005200
0.2810200
0.2678900
-0.4637800
-0.1038600
0.1863500
0.2763200
0.2883600
-0.0997180
-0.6669400
-0.0993690
0.2575700
-0.1903400
-0.3721900
-0.4997200
0.0051488
0.0142670
-0.4993500
-0.0674830
-0.0778430
0.0204200
-0.0235210
0.2202200
-0.0775850
-0.1980200
-0.1103200
-0.4824600
0.3552700
1.0075999
-0.1591700
-0.2671600
-0.0101990
0.1775100
0.7680300
0.0525780
0.1835900
0.4888300
-0.0051820
-0.1139600
0.5167600
0.0424140
-0.6485900
-0.0282200
0.0305170
-0.1153100
-0.2015100
-0.4892600
-0.0237510
-0.5203700
-0.2424300
0.2972000
0.2376000
0.6251600
0.6477900
0.4073100
0.0756210
0.0717620
0.3761000
0.3056000
0.2663400
-0.3319800
-0.3279400
0.3409200
0.4619900
0.0662320
-0.0687510
0.1765900
0.2026200
0.1123500
-0.2293100
-0.1703800
-0.4273600
0.0059515
-0.3043600
-0.0152950
0.2549800
0.1166500
-0.4733300
-0.5375000
-0.2231400
-0.2301400
-0.4129500
0.2301500
0.3377300
1.0402000
0.0862000
-0.1124700
0.1611600
-0.2770100
0.2288300
-0.2019300
0.3181500
-0.3484600
-0.1563000
-0.3624600
-0.4468400
0.2530900
0.3747400
0.1248100
-0.4082400
-0.3922800
0.3134900
-0.2973000
-0.1107700
0.2700600
-0.0810250
-0.5767000
-0.0995550
-0.1475200
0.5942600
0.3160600
0.0341070
0.1602200
0.0075504
0.2460900
0.2448200
-0.1389200
0.1869300
0.0166350
-0.0584750
0.1971000
0.4396500
-0.2123200
0.1601300
0.3170900
0.0275920
-0.3838200
-0.2936900
-0.3651000
0.2950700
0.4427100
0.0202660
-0.1117400
-0.4092600
-0.5998100
0.2210900
0.1093300
0.2025900
-0.0760370
-0.3068900
-0.0013643
-0.0572830
-0.1413300
-0.2995800
-0.2911800
0.0773790
-0.0153900
-0.0249760
-0.2897300
-0.3946600
-0.6317700
-0.3324300
-0.0115490
0.1232000
0.0230040
0.0048145
-0.1252200
-0.4184700
-0.2195400
0.0758820
-0.0223320
0.1122200
-0.0830340
0.1379400
-0.2151900
-0.1936500
0.2494000
0.2071400
0.3187400
0.1041500
0.3357500
-0.0520750
0.0673070
-0.0146220
-0.1893400
-0.1890900
-0.5369300
-0.0234380
-0.3371900
-0.2808400
-0.0926770
0.1609000
-0.3080700
-0.2228700
0.3868400
-0.4056400
0.2095600
-0.2563100
0.1303900
0.0263880
0.1660500
0.0541550
-0.1360700
-0.0205090
0.3381400
0.2431400
-0.1613300
-0.0831120
-0.3459100
-0.3070500
-0.5899300
-0.1316200
0.0578620
-0.2645600
0.3114900
0.1157000
-0.1724700
0.0582320
0.1943300
0.1985600
0.2055800
0.0704500
-0.3352100
0.0761900
0.1529800
0.0143810
-0.2101200
-0.0759980
-0.0614950
-0.2225700
-0.1589400
-0.1973500
-0.1121500
-0.4874600
-0.3815500
0.2564100
-0.3770400
-0.0452620
-0.6451900
0.0872320
0.7864600
0.7206000
0.2730200
0.3145200
0.0765380
0.3271800
0.2586000
0.4301200
0.6074700
0.0933730
0.0424150
-0.0520020
0.4476700
0.3740000
0.0520900
-0.1921900
0.2076800
0.3474300
0.1644000
-0.2829800
-0.1747600
-0.2942400
0.2477500
-0.0947100
-0.6356700
-0.3666200
-0.2698000
0.2743700
0.1686400
-0.1169200
-0.1791100
-0.2048800
0.3635100
0.1138300
-0.0790480
-0.2648000
-0.1632300
-0.0781370
-0.1711300
-0.0555750
-0.0108930
-0.1890700
-0.1959700
0.2105000
0.2205400
-0.3496400
-0.2840100
0.0190370
0.1476500
0.0802450
0.1506800
0.1840100
-0.1243200
-0.2119100
0.0333190
-0.1790300
-0.4593400
-0.2536900
-0.4454600
0.1474300
-0.0107960
0.0233810
-0.1094200
-0.3916900
-0.0610770
0.4746700
0.5595100
0.0633990
0.1429000
0.2005700
0.6318300
0.5302100
0.1736800
0.5214500
0.1924000
0.6694800
0.4169900
0.2521600
0.1335600
0.4141700
0.0593410
-0.0663480
-0.1861300
0.1580400
-0.0657920
0.3734500
0.1727000
-0.4990800
0.1741400
0.4889000
0.1059100
-0.1798400
-0.0473260
-0.0071957
-0.1001000
-0.0706370
-0.1067600
0.0495560
-0.1220700
-0.1741000
-0.0564900
-0.1279600
-0.1318800
-0.3552600
-0.2690500
-0.0775220
-0.1879100
-0.3180500
-0.2441500
-0.0088967
0.1344100
0.0715820
-0.1008500
-0.0913730
0.1756700
0.0377030
0.1660000
0.0340870
0.0284020
-0.2745500
-0.4827100
-0.1906400
0.0379140
-0.1650400
-0.1365600
-0.0882940
0.1742400
-0.0568700
-0.1071600
0.1031200
0.6384800
0.2199900
0.3181100
0.2238900
0.3231900
0.1952500
-0.5031000
0.0636890
0.4553300
-0.1504000
-0.1634700
-0.1469000
0.1526800
0.2896500
0.1328900
0.0496520
-0.0223710
-0.1863900
-0.1959000
-0.3675600
-0.0264800
0.3939500
-0.0133810
-0.1101700
-0.1906300
0.0621520
0.1070800
-0.1624400
0.0497260
-0.2276700
-0.4196600
0.0777290
0.0901840
-0.1334700
-0.1792400
-0.1925000
-0.0039785
-0.0942200
-0.3476500
-0.4078500
0.0611010
-0.2688800
-0.4717400
-0.0263720
0.1699200
0.3014000
-0.2202800
0.3602500
-0.1352200
0.1052400
0.3973300
-0.0896960
0.3214500
-0.2843800
0.0210530
-0.1538100
0.0899250
-0.0189340
0.3451400
0.2684100
0.1086500
-0.4790000
0.1915700
-0.4037000
-0.0262060
0.0339890
-0.5684800
-0.2051400
0.2987700
-0.3397300
0.0020852
-0.6080600
-0.1019400
0.1667200
0.3036900
0.3092300
0.1794200
-0.2515000
-0.1226200
-0.0506770
0.0017290
0.0512980
-0.1998100
0.0465240
-0.1049400
-0.3428200
0.5257400
0.7686600
-0.0062917
0.2428000
0.0682030
-0.2348300
0.1705700
0.3826400
-0.1600000
0.3939000
0.2115800
0.2517900
0.3529800
-0.3913200
0.5117300
-0.3991300
0.3470100
0.0736560
0.4852300
-0.1824500
-0.4456300
-0.0759780
-0.0183720
-0.3842400
0.0463930
0.1423100
-0.1341900
-0.0198470
0.1593600
0.0740810
0.2357700
-0.3037400
0.0617170
-0.1232200
0.3462600
0.1922900
0.1341600
-0.5016100
0.5125200
0.3659800
-0.6214800
-0.2191300
-0.2360300
0.2491300
0.0020793
0.0426580
0.0343700
-0.6615200
-0.3779500
-0.1482900
-0.4711100
-0.0689130
-0.0686650
0.3330800
0.0835640
0.0366710
-0.1630500
0.0423290
0.3996300
0.0951620
-0.1853700
-0.3503400
-0.0252710
-0.1985800
-0.1766800
-0.3571400
0.1571100
0.0754550
-0.1221200
-0.0233600
0.1283700
-0.2524800
-0.1733200
-0.3678800
-0.0168710
-0.1534300
-0.5267000
-0.5805000
-0.1683400
0.2428000
0.0561830
-0.2498900
-0.4153400
-0.1555600
0.0947530
-0.0860010
-0.2779900
-0.1362300
-0.1596900
-0.0965030
-0.2279800
0.2401200
0.3048500
0.0589660
-0.0221300
-0.1794500
0.5506500
0.2549900
0.1171600
0.1892300
0.4810100
-0.1832800
0.0059527
-0.2018400
-0.0318060
-0.0516630
0.2180500
0.6921600
0.0896360
0.1210200
-0.0218070
0.3788600
-0.1283500
-0.4110400
-0.5224700
-0.0568050
0.2910000
0.0174520
-0.0988840
-0.1575400
-0.2558600
0.3379600
-0.2979500
0.3127000
0.0535420
0.2205600
-0.5084800
0.0936840
-0.1538800
-0.1545400
0.2228500
-0.2900000
0.3427200
0.0520830
0.3620100
0.0862800
-0.1307000
-0.1210900
-0.1141900
-0.2773400
-0.1735200
0.2192800
0.0776260
0.2291900
0.5845700
0.1561300
0.3582600
-0.1102000
0.1697900
0.2326200
0.1330300
-0.4307400
-0.2002200
0.0206150
0.5486400
0.1898300
-0.1937200
0.1112100
-0.0303440
-0.2325600
-0.1221400
0.5097200
0.2134700
0.0838460
-0.1970200
0.1957200
0.5036500
-0.3213200
-0.2874100
0.1490700
-0.0416060
0.3622400
0.3171900
0.0159480
0.1827500
-0.2005900
0.0087785
-0.1896300
-0.0208350
-0.2844900
-0.0633500
-0.1086200
-0.2445900
-0.3278400
-0.1930300
-0.0203470
0.1281900
-0.1590500
0.4119600
0.1458900
0.1359300
0.1933500
0.3388300
-0.0356920
0.2353800
0.4368200
-0.2146800
-0.4264000
0.1843300
0.0904120
-0.0747780
-0.6917100
-0.3747800
0.2312100
0.5760000
0.0798450
-0.1748000
-0.0345900
0.2531200
0.5148800
0.0174700
0.0629450
-0.0319500
0.1961100
0.1056000
-0.1932600
-0.2997200
-0.3352900
-0.0326440
-0.0338490
0.4994200
-0.2291600
-0.4998800
-0.1194400
-0.1530300
0.4067000
-0.4378000
-0.4154300
-0.3646400
0.1246400
0.5392800
0.5261800
-0.1134000
-0.3961100
0.0313250
0.1198100
0.4696200
-0.1112200
-0.0753700
-0.0075520
-0.2144900
0.2261900
0.2352600
0.0981990
0.0295660
-0.1083700
-0.3532200
-0.0401040
0.0052475
-0.1489100
0.0936110
-0.1010900
-0.2940300
-0.1549200
0.6045700
0.9224700
-0.1662000
-0.3756600
-0.0393660
0.2266300
0.5074800
-0.1739400
-0.1991100
-0.1669200
0.3147400
0.2694600
-0.0510730
-0.1096600
-0.0778490
0.0906860
-0.4382500
-0.1776000
-0.2528800
0.3843600
-0.0911490
-0.2292700
0.0096617
-0.3691400
-0.0125090
-0.1272500
0.1951600
0.5873600
0.3564500
0.1711600
0.2700700
-0.0371110
-0.0024405
0.1328300
-0.1339400
-0.0858570
-0.2330700
-0.1816400
0.2039600
-0.2230600
-0.1821000
-0.1230300
-0.1404100
0.5358200
-0.1762900
-0.1254000
0.0655170
-0.6991600
-0.5296200
0.1858500
0.6835200
0.4974300
-0.7150300
-0.2228600
0.1359600
0.3187400
0.3116400
0.0575810
-0.1674300
0.1147700
-0.1631600
0.5990100
-0.2166000
-0.3770700
-0.1161600
0.1195900
-0.2841400
0.0174060
0.1605200
-0.1214000
-0.3015000
-0.1210900
-0.2141500
-0.0166800
-0.1710200
-0.0662830
0.3433100
0.1519100
-0.0114040
0.0181990
0.3428400
0.4405900
-0.0311380
-0.3056300
-0.2570900
0.3179100
-0.0904260
0.0636280
0.2724300
0.2437000
0.3338500
-0.0557180
-0.7560100
-0.0194500
-0.1537400
-0.2087800
-0.1702700
0.0603830
0.1993500
0.0347720
-0.0096451
-0.3200200
-0.1540200
0.0938230
-0.1480200
-0.1098600
-0.2736300
-0.0508560
-0.2725000
-0.2659300
0.1281300
-0.3383300
-0.0875770
0.4402800
0.0237980
0.1304600
-0.0247200
-0.1864300
-0.3493600
-0.0364470
-0.0061673
0.0960780
-0.6468300
-0.2022200
0.2028200
-0.2345300
0.2304900
0.1627700
-0.0004195
0.1959400
-0.0454590
-0.2684600
0.6695300
0.4569000
0.0543000
-0.2022100
-0.3313800
0.0213450
0.3014600
0.0307300
-0.0454200
0.0577800
-0.1668100
0.2480200
0.1532400
-0.1691100
0.1141100
-1.1313000
-0.0007143
0.3210000
0.1303800
0.0139040
-0.3533100
-0.3248100
-0.0343320
-0.4006600
0.0397280
0.5294300
0.0510510
0.3510100
-0.3679400
0.0701220
-0.1817300
-0.3360500
-0.4306800
0.1180900
0.0484670
0.4183600
0.4224800
-0.0398460
-0.3029500
0.0629640
-0.2686800
-0.0617220
-0.0068706
-0.0816820
0.1715200
0.3274200
-0.0244230
-0.1483000
0.2740600
0.0817420
0.2090700
0.2839600
0.1655400
-0.5748400
-0.2101100
0.2412200
0.0450200
-0.0467700
0.3828600
-0.1078100
-0.1123600
-0.2130700
-0.0033070
0.1038600
-0.1375000
-0.1461900
-0.2690000
-0.3385000
0.0871450
-0.0899050
0.1119100
0.0600580
0.1411900
0.0961260
0.1959300
0.0581190
0.2921300
0.1791500
0.0014153
0.1070400
-0.0163030
0.0573250
-0.1043500
-0.2099400
0.1231500
0.0800870
-0.1340800
0.3186800
-0.4470600
-0.2496800
-0.1159100
0.1255200
0.0525270
-0.2621400
-0.0931470
0.0428040
0.0430990
0.1992900
-0.0821350
-0.0128090
-0.1610500
0.1102400
-0.0515130
-0.3774800
-0.0757160
-0.0706200
0.3756000
0.2284900
-0.0346980
-0.1622200
0.0335480
0.4452400
0.1477900
0.0436190
-0.3877400
-0.0447600
0.3671300
0.1399300
-0.1001000
-0.2700400
0.3212700
0.3984800
0.2725600
-0.2721500
-0.5490500
-0.1633400
0.0996420
-0.1843400
-0.1085900
0.0613670
0.1439500
0.1540900
-0.3874400
0.1135100
-0.0792150
-0.4975600
-0.0049052
-0.3176400
0.2303100
0.0082932
-0.1064900
0.3023500
-0.2960200
-0.0506660
0.3535800
0.1177200
0.2890400
-0.2650400
-0.0603520
-0.0557320
0.3427400
-0.1255800
0.0263360
0.3493500
-0.3801000
-0.1936500
0.4695200
0.4019800
0.1795900
-0.1564200
0.1960500
-0.1615400
0.1875800
-0.3619200
0.3111200
-0.5258200
0.0114000
0.3259800
0.4084400
0.1544400
-0.1572900
0.2015800
0.0574100
0.1133700
-0.1415600
-0.0949280
-0.3476200
0.1298900
-0.0259970
0.1289300
-0.0166230
-0.0898980
-0.0182040
0.1939800
0.1031100
0.1937700
-0.0128170
-0.1117700
-0.1899100
0.3460500
-0.0374510
-0.3405100
-0.8920600
-0.5437900
-0.0961510
-0.3154700
-0.0335660
0.4693300
-0.3448200
-0.3172600
-0.2465200
-0.4726300
-0.0646990
0.3943500
0.2613900
-0.0706610
-0.2682900
-0.0352960
-0.0288630
0.2552700
0.0151950
0.2248500
0.4916300
0.2353500
0.0570920
-0.3321500
-0.2939300
0.1985700
-0.2295800
-0.0437920
-0.2027900
-0.0433040
0.1513800
0.2725700
-0.2226600
0.0205340
0.2181900
0.0050437
0.0184510
-0.2414800
0.0230230
0.1949700
-0.1139700
0.1650300
1.2508000
-0.0793020
0.1739400
-0.2947800
-0.2762300
0.2028200
0.1288300
0.0227430
-0.2161200
-0.5265000
-0.2849100
-0.1879100
0.4027500
-0.4806600
-0.2538800
-0.0040279
-0.4275400
0.3026100
-0.4191300
0.2149900
-0.1615500
-0.0619310
-0.4295600
0.2478500
0.5966600
0.1412500
-0.4166100
0.2284000
-0.0036647
0.1475200
-0.2458600
-0.0938100
-0.0511670
-0.0108370
0.1733900
-0.4743300
-0.4558800
-0.2988000
-0.0719570
-0.3599700
-0.1070700
0.0396670
-0.1605300
0.3478200
0.1420300
-0.3866100
0.0066046
-0.0280870
-0.0925920
0.0264520
0.4076600
0.0568920
0.3861200
0.2089000
-0.3898000
-0.1161600
-0.4172900
0.2765500
-0.8296200
-0.6045700
-0.7085700
0.1475800
0.2061800
-0.0900480
-0.0377520
-0.0895270
-0.0536590
0.2078500
0.1105600
0.1459900
0.4208800
0.1272300
-0.1839300
0.1905600
0.2503700
0.0076463
0.0619050
-0.1868800
0.2024300
0.2317800
-0.1322200
-0.1489800
-0.1459300
0.2791900
0.2874800
0.6817800
-0.5734400
-0.0708380
0.2364800
0.3760500
-1.0231000
0.0728300
0.2050300
0.0182430
-0.1763300
0.1895300
-0.0897720
0.1521900
0.2908200
-0.0731050
-0.1504300
0.2116400
-0.0565210
-0.2405000
-0.1052100
0.0879640
-0.3349100
0.4694300
0.4332000
0.0996820
-0.0408900
-0.3893400
-0.4814400
-0.2803400
-0.4354000
-0.8083800
-0.1608800
-0.1402900
-0.4841100
0.1053800
-0.0696140
0.1235400
-0.1445300
-0.0308730
0.2280800
0.4460400
-0.0338700
0.3828600
0.0365920
-0.0831650
-0.1635200
0.2513300
0.0918490
-0.0376530
-0.3597900
-0.1869800
-0.0798520
0.0371790
-0.2444600
0.3413700
0.0983190
-0.2389800
-0.1872400
-0.1690200
0.5760500
0.2908300
-0.0103200
-0.4738200
-0.2851700
0.2190100
0.2971500
0.1038100
-0.0883600
-0.1986200
0.1402400
0.3723700
-0.3002900
0.1733100
0.0900130
0.2645900
0.0104570
0.0088028
0.3752600
-0.2826900
-0.3529200
-0.0464500
-0.2149300
-0.2062900
-0.2339100
-0.1203300
-0.2075100
0.4211800
0.0486420
-0.2486600
-0.4159200
0.1236800
0.0312850
-0.1358700
-0.0656220
-0.6725100
0.0598780
-0.6304000
-0.0548290
0.3148500
0.3959700
-0.0991010
-0.3481600
0.1593500
0.4749300
0.0252390
-0.5218500
0.1504600
-0.0479490
0.0896480
0.2996500
-0.1464700
-0.1709500
0.1932400
-0.3964800
0.0902950
0.4187800
0.2645300
-0.2782700
-0.0546980
-0.6123600
0.2086100
-0.0642900
0.0759200
0.0925830
0.2670800
-0.3984100
-0.0456050
0.1558200
0.0524460
-0.7282100
-0.2637400
-0.3482000
-0.1438700
-0.2119300
0.0657230
0.3588200
0.1189700
0.2063800
0.1050100
0.1660700
-0.1459800
-0.0114310
0.1073000
0.4656900
0.0573840
0.0628600
0.2594200
-0.1366900
-0.4191100
-0.0210220
-0.0052388
0.2877000
-0.1072700
-0.1574700
-0.4310000
-0.0153750
0.1346800
0.3865000
-0.1402700
0.1052900
0.4129100
0.1027800
-0.0716710
0.1738100
-0.0599980
-0.4440800
0.1759800
0.1006500
-0.2819900
-0.0583310
-0.1612300
-0.2309100
0.0895180
-0.6647400
-0.3942900
-0.1284600
0.0370070
0.4352000
0.3715700
-0.6288500
0.1153100
0.1081100
0.2666100
0.1169700
0.2070800
0.3813100
-0.1043200
0.1454300
0.3423600
0.4435200
0.2314800
0.1080200
0.0186790
0.1570800
0.2263500
0.5614900
0.1127500
-0.5399100
-0.5260100
-0.1926900
0.2151600
-0.1496000
0.1259700
-0.0156560
-0.1595700
0.4485400
0.0944330
0.2113000
-0.2259500
-0.4856700
-0.5114200
0.6136900
0.1205200
-0.4011900
-0.5545600
-0.2396500
-0.0134530
0.2531000
0.1293200
0.0614980
0.0764540
-0.2323200
-0.2848400
0.3285000
0.7695100
-0.1374400
-0.3786600
-0.4277700
0.7574100
0.2850300
0.0324270
0.1411200
0.3942900
0.5181900
-0.5110700
-0.0405180
-0.0771780
0.1512400
0.3509500
0.1154700
-0.3006300
0.0394770
-0.3031900
0.1804800
-0.3601700
-0.0605170
0.2433600
0.2249500
-0.1287100
0.5001100
0.6972300
0.0393680
0.2032700
0.0661220
-0.2245300
-0.0893350
0.4425900
0.2588700
-0.1105400
0.2534200
0.0198830
0.4555900
-0.0460430
0.0540860
0.0863550
0.2485700
-0.2498000
-0.1259000
-0.2021900
-0.3115900
0.2428000
-0.8758700
-0.2911000
-0.0523070
-0.1714300
0.3449200
0.3676500
0.2300600
-0.4365400
-0.2250600
0.1857300
0.1611800
-0.1190700
-0.5189400
0.0488480
-0.2634100
-0.3883800
-0.0309740
-0.1027000
0.0429410
-0.2105300
0.3209700
-0.1526100
0.2170100
0.4356600
0.5347200
-0.0758650
0.2277700
-0.0228490
-0.0255010
-0.2373600
0.2814100
0.3862700
0.7050300
0.0207050
0.2344700
-0.2340400
-0.2526800
0.0946290
0.1535400
0.0360640
0.0486530
0.1884100
0.1793700
-0.1339500
-0.0031773
-0.1025900
-0.0292440
-0.0114450
-0.0097146
0.0331110
-0.2221900
0.0319370
-0.5997600
0.5141500
0.5199700
0.6525100
-0.3227700
-0.1613900
0.1224600
0.1297400
0.1895300
-0.1596500
0.0407290
0.2037400
-0.2974600
-0.2392900
-0.2524100
0.0725760
-0.0735950
-0.2979000
0.0165240
0.0404370
0.3418000
-0.1495600
-0.3114800
-0.3260200
0.2747200
-0.0298230
0.2049900
-0.1978400
-0.2542000
0.1416500
-0.2851800
-0.1970100
-0.4980500
0.6511000
0.1229300
0.3682300
-0.2560500
0.0477590
-0.0364910
0.5318100
0.0688600
-0.2282300
-0.3058800
-0.1644700
0.1641300
0.3906200
0.0437120
-0.2748800
0.3107900
-0.3301800
-0.5888800
0.0796910
-0.1132700
0.0985560
-0.1923600
-0.5606200
0.4091300
0.0625750
-0.1769600
0.2058100
-0.2852500
0.1578500
-0.0514190
0.0565900
-0.0099704
0.3302900
0.3943300
-0.1860500
0.3016500
0.2586300
0.0696890
0.0141730
0.2173800
0.2408200
-0.0686770
0.2645900
0.1672400
0.0845780
-0.7980700
-0.2559600
0.0973820
-0.4257300
0.0613220
-0.1781800
0.1503700
-0.0760190
-0.3071900
0.1078500
0.2583400
0.1279800
0.2661700
-0.1051500
0.0089233
-0.0940100
-0.1824600
-0.6942100
-0.1411500
-0.4310600
0.1962600
0.1939300
0.3704500
-0.0918990
-0.0323800
0.1020400
-0.1377900
0.0411950
-0.6001700
-0.8002000
0.1755100
0.5465100
0.3824500
0.3926700
0.0413810
-0.0370600
0.2678800
0.4192800
0.1150200
0.0361110
-0.0401710
0.0391730
-0.1498000
-0.1164000
-0.2340700
-0.3245800
0.3808300
-0.4958600
-0.6790800
-0.5307500
0.2664100
0.0796590
-0.5221000
-0.3074300
-0.1259700
0.6881900
-0.5758700
0.0173440
0.1102600
0.0506710
-0.2502800
0.0513700
0.0126950
-0.3817900
-0.5205700
-0.0107460
-0.3717200
-0.5309500
-0.2661000
-0.0979600
0.0616680
0.3336400
-0.0232170
0.1379300
-0.3878400
0.2421600
0.3258000
0.3037000
0.0654060
-0.0127560
-0.0179150
0.1965000
0.2563300
-0.3411200
-0.1291400
-0.0150320
0.1861500
-0.1856200
-0.1931800
-0.0194470
-0.1564900
-0.1857400
-0.1299900
-0.5815500
-0.0263890
0.5074000
0.2709100
0.1086800
0.1686500
0.1196000
0.0332540
-0.0091208
0.0918210
-0.0938820
-0.1057700
0.1897300
0.1960200
0.4252000
-0.0655500
-0.2145900
0.2622800
-0.0391240
-0.1132100
-0.5558600
-0.1321300
-0.1455000
-0.8018400
-0.1995700
-0.1841300
-0.3297200
-0.2667900
0.2630100
0.2843300
-0.0395720
0.3240900
0.3633400
0.3150800
0.0305720
-0.0006443
0.0329460
0.5469700
-0.0629670
0.0775700
-0.5026500
-0.0817150
-0.1006900
0.1717600
-0.3732400
0.0779180
-0.0774630
0.3017800
-0.1481500
-0.0755630
-0.0721800
0.1678400
-0.1056600
-0.0452530
0.2059900
0.1440500
0.3054800
0.0145400
0.2188800
0.4393300
0.2852600
-0.1543400
-0.2523400
-0.2344000
-0.0145070
0.4371300
-0.1290500
-0.1569900
-0.1140500
-0.0044426
0.1111200
0.1343400
0.0957080
0.0841960
0.4208000
0.1813000
-0.0294710
-0.4262300
-0.3643100
-0.8762800
-0.1193500
0.4517600
-0.0655140
0.1826500
-0.1527200
0.0559560
-0.0221390
0.0130040
0.1847600
-0.0011751
-0.3017700
-0.3342800
0.3347500
0.0524870
0.1056800
-0.0974190
0.0794520
-0.1841400
0.0382770
0.1765600
-0.0074810
0.0431480
0.3524300
-0.1034000
0.3200700
-0.2794600
0.1041800
0.3836100
0.0166520
0.5421300
0.0215760
-0.2907500
0.1049100
-0.0254640
0.0111720
0.1593800
-0.6519300
0.1394200
0.0624030
0.2105500
-0.1792800
-0.1558000
0.0612880
0.1415300
0.1595300
-0.0968170
-0.5194300
0.1282100
0.1219100
0.3512900
-0.0702220
-0.3779800
-0.0465150
0.3390500
0.1481700
-0.0843750
0.1332700
-0.0633940
-0.2194100
-0.0714210
0.0255160
0.2265700
0.1722000
0.5006700
0.1400300
-0.2613300
-0.4198100
0.0474680
0.1366700
-0.4818300
-0.2759000
-0.1968900
-0.2338600
-0.0534060
0.0025180
0.1615200
0.4234600
-0.1004900
0.2159900
-0.1063200
-0.1332100
-0.0487080
0.0869070
-0.1292800
0.2296300
0.5879300
0.4125000
0.0299320
0.5754600
0.5378400
0.1872000
-0.1543800
-0.0134910
-0.3634200
-0.3247400
-0.0581460
0.1620300
0.0256990
-0.0455360
-0.1692400
-0.2256700
-0.1574600
-0.0205720
-0.0551390
-0.1191900
0.0475330
0.0883360
0.0028059
0.2388000
0.1427800
0.0857760
-0.2994800
0.2367300
0.1515000
-0.4078700
-0.4545600
-0.3784200
0.0161470
-0.3298800
0.2455900
0.3788100
0.4820400
-0.2031100
-0.3159200
0.2943700
-0.1667200
0.0651650
-0.3157300
0.2205100
0.0245050
0.1340800
0.0314130
0.0967200
-0.2434200
-0.3167900
0.0211730
0.0178780
-0.0625030
-0.4422400
-0.0350070
0.0845900
0.0957530
-0.3438300
-0.2402500
-0.0960530
-0.5159300
-0.2597000
0.7103700
-0.3144300
-0.2639900
-0.0542200
0.4934800
0.4908900
0.0420790
0.1580300
-0.1035600
0.0884690
0.2431700
-0.0501450
-0.1354600
-0.4888900
-0.4599400
0.0001737
0.1776000
-0.0803420
-0.0013169
0.2657900
0.1198400
-0.1369900
0.3551900
0.1791600
0.3873900
0.0017423
0.0979400
0.2120800
0.0579490
0.3177000
0.1861700
-0.1584100
-0.0272960
0.4280800
0.3783300
0.4301600
-0.0879740
0.0776400
0.2714000
0.2020100
0.2349500
-0.0353320
0.1049600
-0.0343940
0.0227730
0.1151900
0.3346300
-0.0046473
0.2137700
0.1890300
0.4196700
-0.3361700
-0.0935620
-0.0085768
0.0690620
0.2555100
0.2787600
-0.0906430
0.1834400
-0.1583100
0.1614500
-0.1075600
0.4117300
-0.3188400
-0.0969600
0.2094500
0.0756870
0.0600340
0.1496300
0.2890500
0.2487700
0.0437300
0.0327750
-0.0577550
0.4870100
-0.2332400
-0.1862100
0.1473800
0.0373650
-0.2306900
-0.2086900
-0.1495700
0.1688800
0.0886570
0.5833500
-0.0531910
-0.3000500
-0.0735440
0.3174100
-0.2305200
-0.3805500
-0.8797900
-0.2977300
-0.4405900
-0.5999100
-0.3870600
-0.1083200
-0.0189450
-0.0069286
0.1729800
0.1078500
0.0280310
0.0520620
-0.0200600
-0.1036300
0.0510910
-0.0017726
-0.1563300
-0.0697150
0.0891050
-0.2701500
-0.1950500
-0.1748000
0.1718300
0.0202670
-0.4847200
-0.0924440
-0.1034300
0.2017400
0.1005500
0.1187500
0.0138570
-0.2090900
-0.0560360
-0.2267000
0.1863600
0.1417600
0.3153700
0.1716100
-0.2041000
0.1099000
0.3016100
0.1756100
-0.1517200
-0.1388100
0.1439600
0.1753400
-0.1373100
0.1807400
-0.0630520
0.1525000
-0.1532700
-0.2663400
-0.4932300
-0.4369800
0.1627700
-0.2302400
0.0750520
0.0669770
-0.0509640
0.3062800
0.0230220
0.0817940
-0.0704240
0.3362700
0.2517300
-0.0847880
0.0890500
-0.1842600
0.0943210
0.0882270
-0.1849400
-0.3143900
0.0712920
0.1545000
0.2332400
0.0719590
0.2637600
0.1257600
0.4347000
0.0039816
0.2943300
-0.2438500
-0.4388100
0.0038944
-0.3884800
-0.0255140
0.0800300
0.1295600
-0.0565140
-0.2470800
-0.0053868
-0.1716400
-0.3273800
-0.1123600
0.3285000
-0.1615400
-0.1412100
-0.2787200
-0.7439800
0.1087800
-0.5272200
-0.2526900
-0.3862800
-0.1119500
0.0338730
0.3682300
0.2743600
-0.1020100
0.1934900
0.4013600
-0.0730390
-0.0002517
-0.1728500
0.0300030
0.2406900
0.3286400
0.3064600
-0.1160000
0.3362000
0.2315700
0.3062300
0.1857300
0.1116900
-0.2350800
-0.4996200
0.1417500
0.1492400
-0.2242900
0.3335000
-0.2528400
-0.1351300
-0.1033400
0.2771500
0.2727800
0.0796480
0.3146100
-0.0000972
-0.0947870
-0.0498590
-0.0737630
0.5321700
0.1276800
0.5038600
0.4603500
0.1544100
0.1935900
-0.2454300
-0.0317880
-0.2479500
-0.1542200
0.1398200
0.1171600
0.0958090
0.3739200
0.0652260
0.1012500
0.3272400
0.2508800
0.0447030
0.1503600
-0.2881900
-0.0395500
-0.4370700
-0.1979000
0.0684070
-0.2072000
0.1138800
-0.0229910
-0.2871800
0.0264770
-0.0241590
0.1854500
-0.3235400
-0.5944800
0.2061200
0.0836330
0.1816300
0.3333800
0.1403900
0.3151000
-0.0205020
0.3825800
0.3875000
0.0625830
-0.2638900
0.4533400
-0.6601700
-0.5069200
0.0054440
0.2511500
0.2042600
0.1979200
-0.6377900
-0.0490900
0.0808630
0.2625800
0.3661700
0.0112720
0.0428070
-0.2724300
0.0430630
-0.0395410
-0.1039200
-0.1481400
0.2900300
0.0088998
-0.1547700
-0.1916400
0.0650930
-0.7985000
-0.5890700
0.0551740
-0.1548200
-0.2941200
0.0985350
-0.0140620
-0.6737400
-0.1943000
0.1851700
0.1356900
0.4250100
0.6279100
0.2752400
0.6475300
-0.1568300
0.3786800
0.1336400
0.2394200
0.1921000
-0.3099300
-0.7744400
-0.1514000
-0.3996000
-0.3305800
-0.1531900
0.5751400
0.1703400
-0.1709100
-0.5454000
0.2314800
0.1165400
-0.0302850
0.2090200
-0.2047800
-0.7885100
-0.2191700
0.2565900
-0.1607200
0.0070677
-0.2021800
-0.3739200
-0.2721800
-0.3241400
-0.3529100
-0.0513400
-0.3169100
-0.0904470
-0.1333400
-0.2758400
0.3327900
0.1573400
0.9680700
0.1056200
-0.3610800
-0.0812870
0.2853800
-0.4972000
0.0329190
-0.0142400
-0.2491100
0.0555900
-0.1527300
0.3575400
0.3715000
-0.5188300
0.0128530
-0.1790400
0.0121910
-0.3424900
-0.1493800
0.1675100
0.1194800
-0.0213960
-0.5277800
-0.6700400
-0.2610500
0.0073530
-0.1097400
0.3905600
-0.2584700
-0.3314400
-0.4080800
-0.0200550
-0.5334800
-0.3696000
0.2376400
-0.0467150
0.1976700
-0.1988900
0.1545400
0.3153800
0.3891000
0.2513800
-0.7485700
-0.2602300
0.0844940
0.1030700
0.1609700
-0.6404200
0.0442660
-0.6691500
-0.4834200
-0.5646600
-0.3860800
-0.3306500
-0.2560500
-0.2414400
-0.1209700
0.1237000
-0.1260900
0.0228830
-0.4588700
-0.2581800
-0.0538700
-0.1505000
0.1053600
0.0077432
-0.1622500
0.0052857
0.4378900
0.5249100
0.1503800
-0.2599600
0.0042947
0.3611700
0.0380660
0.0548480
-0.2070100
0.7318700
-0.4438000
0.2325700
0.2504200
0.5637000
0.2343400
-0.2037400
-0.1313200
0.4028600
0.1991200
0.0584310
-0.0295680
0.7914900
0.0401560
-0.2682700
0.2245300
-0.3757000
-0.3946600
0.0155210
-0.0782460
-0.0738550
-0.3020200
-0.3306800
-0.1611400
-0.3443900
0.1169200
0.0416780
-0.2040000
-0.2334900
-0.6555600
0.2014500
0.3477200
0.0529180
0.4190900
-0.5012800
-0.4501300
0.2886400
-0.2731200
0.0376780
-0.3048100
-0.1004800
0.2473100
0.1022800
-0.2112500
-0.0237740
0.0949470
-0.2982800
0.4052700
0.2370500
0.1428800
0.1878800
-0.4314200
0.1513000
0.6418000
0.6449600
0.3420200
-0.4470100
0.1292600
0.2214900
-0.2921900
-0.6544600
-0.4355100
-0.1506800
-0.0732990
0.1328100
-0.1328300
-0.2103000
0.3583200
-0.0159950
-0.2048000
-0.1531400
0.3436600
0.4157400
-0.1352700
-0.2836200
0.1650200
-0.2375000
-0.3121400
-0.2256500
0.5181800
0.5156100
-0.4239900
-0.4507900
-0.2103400
-0.2239800
-0.7211400
0.1583200
-0.5133200
0.0179910
-0.1853400
-0.1820100
0.3020600
-0.3143600
0.1500900
0.1252100
-0.0042640
0.3014900
0.1465400
0.3839100
0.2587300
0.6685300
-0.2161800
-0.3289400
-0.3790600
0.6935300
-0.1963800
-0.1072500
-0.3023900
0.3390900
0.4169400
0.1074400
-0.3278900
0.3294700
-0.0871460
-0.0911920
-0.1158500
-0.0866210
0.1926900
-0.6799000
-0.1492000
0.1087700
-0.1254100
0.5977500
-0.1111300
0.1336100
0.4254600
-0.4574000
-0.8101700
0.3183200
0.0972580
-0.3045500
0.1225400
-0.5409000
-0.5373600
0.0052390
0.2177400
0.1257700
-0.0127150
-0.0078233
-0.0572210
0.0592710
0.3185300
0.4478100
0.0810850
-0.0445600
-0.0029368
-0.1192400
0.8736500
0.0958900
0.8250200
0.1469000
0.3897500
0.5328100
0.5555000
-0.0970480
0.1222100
-0.1868800
-0.2299100
-0.6332900
-0.2861900
0.4325500
-0.0505560
0.0545090
0.0437620
0.2945400
0.2543700
-0.4673500
0.3412000
0.2061300
0.3081700
0.0421300
0.4662300
0.0293780
0.4138200
0.1758700
-0.2357500
-0.2776300
-0.1483300
-0.1181400
0.1862300
0.4842500
-0.4833500
0.4436200
0.5586800
0.7005300
-0.4150700
-0.7000800
0.2678100
-0.3141400
-0.1770100
0.5411800
0.0895770
-0.2244200
0.0944100
0.0420990
-0.2557400
-0.2532500
-0.4717400
-0.4118300
-0.0938380
-0.0680000
0.1863500
0.2435600
-0.5078400
-0.2326300
0.0484300
0.0393910
0.3144500
-0.8843200
-0.1709200
0.0729870
0.4086100
-0.1337300
0.2497100
-0.5121100
-0.0356140
0.1537800
0.2460900
0.1211200
-0.3618000
-0.4148100
-0.3376900
-0.0566200
-0.3494700
-0.6918300
0.0139080
0.3694000
0.1927500
0.1338300
-0.4132600
-0.3022000
0.2424400
0.3264000
0.3069700
-0.1444300
-0.2946400
0.2765800
-0.3132200
-0.2427500
-0.1076100
0.1016200
-0.2807600
0.3181900
-0.3609800
-0.6001400
0.3018500
-0.0618340
-0.2046900
-0.5773500
-0.4783900
-0.2224200
0.0035901
0.0707850
0.1537900
-0.2497300
-0.1891800
0.0760550
0.0251180
-0.0977870
-0.0280620
-0.0292400
-0.0971480
0.0514140
0.0213290
-0.2335400
-0.1853900
-0.1806800
0.1392000
0.2651800
-0.0390150
-0.6593200
-0.2915900
0.0262460
0.0921630
-0.3947800
-0.2192900
0.1207600
-0.5905800
-0.2628900
-0.1869200
0.3486900
-0.2407600
-0.1770000
-0.3597500
-0.1462300
0.1746700
0.0351180
-0.2415600
-0.1328100
-0.2630800
0.2610400
-0.1968200
-0.1662400
-0.2085500
-0.1426900
0.5831000
-0.0278020
0.2985900
0.0939020
-0.1239900
-0.0180470
-0.5500100
-0.2206400
-0.1558500
-0.1173300
0.0059334
0.0718710
0.2303000
0.4216400
-0.0022796
0.2208400
-0.2495700
-0.0034058
0.3009600
-0.1904800
-0.1998700
-0.1700300
0.0775850
0.5941300
0.2493300
-0.4456300
0.0226010
0.0444400
-0.2161800
0.1869200
-0.1086700
0.1223500
0.0483430
-0.0835380
-0.0707690
0.1028800
-0.0840970
0.1839500
-0.0407050
-0.1237400
-0.1638400
0.4531900
0.1809300
-0.5084700
-0.0657030
0.2551100
0.6125200
-0.3733000
0.0916320
-0.0559220
0.2153600
-0.0600280
0.3357200
0.1924800
-0.1097900
0.3407200
0.3667000
-0.0428400
0.1654700
0.3756000
-0.4674900
0.1546400
0.0500980
-0.0612280
0.0374460
-0.1761800
-0.1648800
-0.4362900
-0.0194080
0.1353700
-0.3507500
-0.0981490
-0.3392500
-0.1485300
-0.3728400
-0.1867300
-0.3833800
0.2150400
0.0177020
0.0456910
0.5044600
-0.1173600
-0.0280700
-0.0761400
-0.1871400
0.4278600
0.0091991
-0.0024170
-0.2114400
-0.3031000
0.3209000
-0.0299860
0.2449900
-0.1571200
-0.0483170
-0.2225100
0.1575100
-0.0237580
0.1779700
-0.1457900
-0.6313000
-0.1249500
0.1963700
-0.0648930
0.0025340
-0.1909100
-0.0940470
0.0037613
-0.0633990
0.2004100
-0.2237200
-0.1886000
0.0762650
0.0196250
0.0575460
0.1843700
-0.2313800
-0.3426900
-0.0095532
0.3070700
0.3001700
0.0058018
-0.3213900
0.3766800
0.5570300
0.2902000
-0.4792300
-0.0000095
-0.0585260
0.1219900
0.4341500
-0.0677190
-0.1581600
-0.0730710
-0.1775000
0.2415800
0.3112400
0.0045448
-0.2169800
-0.3713800
-0.0587220
0.0773670
0.2863500
-0.5227500
-0.2942400
0.0703760
0.1948500
-0.5212600
-0.3444000
-0.4959200
-0.1359700
0.1250300
0.1608300
0.0037338
-0.4117900
-0.2811600
-0.1579300
0.0682570
0.1184200
0.2702300
0.3821000
-0.2030800
-0.4156100
0.1550200
0.4145800
-0.0905440
-0.3190400
-0.4420200
0.1137800
0.7562900
0.3594200
-0.1753300
-0.1473300
-0.1679100
-0.0679620
-0.0377000
0.0748060
0.2225900
0.0316380
0.1967600
-0.0410330
-0.4196300
-0.1829900
-0.1967100
-0.2034500
0.2456600
-0.2551200
-0.3181500
-0.0421820
0.1768000
-0.2434900
0.0646550
-0.2465700
-0.0388210
-0.1204900
-0.4269400
-0.1141300
-0.3198000
-0.3901700
-0.1333500
-0.1882300
-0.0384800
-0.3082800
-0.4045900
-0.5188100
-0.2421900
-0.3668800
-0.4443600
0.0766490
0.0716220
-0.1822600
-0.4648800
-0.2130200
-0.1938300
-0.1198300
-0.2057800
-0.0506030
0.4586000
0.1781700
-0.2498700
0.2149900
0.0389780
0.0654860
0.6585500
0.1510100
0.2122900
-0.1117200
0.2797400
0.4474900
0.0515770
0.1011900
-0.1330900
-0.2698000
-0.2159200
0.0814160
0.6106000
0.1817600
-0.1766400
0.2984200
0.3023800
-0.0639580
-0.1823800
-0.2878100
0.4084400
0.2563800
-0.1740200
-0.2099000
-0.0004045
-0.0111170
-0.1099500
-0.0080168
0.8409300
0.7240700
0.6304000
0.0960910
0.3595600
0.4130500
0.0490690
0.6929000
-0.3979300
0.4430500
-0.4380700
-0.0270740
0.0313420
-0.0239300
0.2927300
-0.0663330
-0.4028100
-0.3329400
0.1503500
-0.1101500
-0.3071500
-0.2605500
0.1733800
0.0508530
-0.4703300
-0.4704500
-0.2029600
0.1492200
0.0361200
0.0429260
-0.2288900
-0.1057200
-0.2467300
0.2754600
0.3712800
-0.4451300
-0.3383000
0.2144500
0.1425400
0.3578800
0.0808780
0.6685300
0.2852500
0.4668800
0.7449300
0.2113500
0.7213100
0.1765900
0.3912900
0.1813900
-0.1980500
-0.6195600
0.0960950
0.2467100
0.0347760
-0.1031200
-0.2918600
0.0143330
-0.0743620
0.1301800
-0.1580100
0.0922720
0.4279600
-0.0410480
0.2653200
-0.1450100
-0.2148300
0.4232300
0.2215900
0.4637200
0.0804500
0.1908000
-0.1212300
0.1497500
-0.0680600
0.0566450
-0.1940700
-0.4303800
-0.1005200
0.3601400
0.1747900
0.0250190
-0.0787280
-0.1788300
-0.0105260
0.0994480
0.0225250
-0.1664500
-0.3338800
0.0522640
0.2455000
0.0987250
-0.2652300
-0.6068300
-0.3739600
0.2625500
0.0345340
-0.3326300
-0.7189400
-0.4756200
-0.0087052
0.0121040
0.4356900
-0.1630300
-0.3644600
-0.1041800
0.2297600
0.4077900
-0.3106100
-0.4538700
0.1959600
0.4702500
-0.0211600
-0.4088900
0.0804550
-0.2573300
0.0253870
-0.4344300
0.3217400
0.1735600
-0.3069700
-0.1176900
0.1043400
-0.1782200
0.0618660
-0.3453300
-0.1291400
-0.0844050
-0.2534300
-0.0747620
0.4440100
0.6297900
-0.0755360
0.0682860
-0.1264200
0.3892100
-0.4276400
0.0855320
0.4747900
-0.2983800
-0.2181700
0.3251300
0.3882900
-0.0429090
-0.0015235
0.0924290
0.0661450
-0.5737400
-0.1112300
0.2453900
-0.9346501
-0.6223000
0.1649100
0.5263400
-0.6618000
-0.0130750
0.1203800
0.0780150
0.3284200
-0.3126900
-0.0367660
-0.4647000
0.2567400
-0.0464680
0.6212900
-0.2535500
0.4908900
0.0976130
-0.2292800
-0.2836900
-0.0795110
-0.0340210
-0.1731200
-0.1008900
-0.0498860
0.2412300
-0.2328000
-0.7205600
0.2939600
-0.0186610
-0.2715500
-0.4330700
-0.2431000
0.1298300
-0.0248590
-0.1005600
-0.4199600
-0.1027100
0.1984100
0.0113890
-0.0268440
0.3381400
-0.4156400
0.0555670
0.1100600
-0.9523500
0.5722700
0.1436400
0.1135200
0.0811250
-0.1577100
-0.1597100
0.3964400
0.1663100
-0.3342800
-0.6739600
-0.2607500
0.1098000
-0.2244800
-0.4242100
0.0625260
0.0957090
-0.0513020
-0.0434940
-0.7765600
-0.1264000
0.0656790
0.0185650
0.1674000
0.5677300
0.2135300
0.0976240
0.1596600
0.3994400
0.4621400
-0.3412600
0.2416000
0.5053300
-0.0523900
-0.1258000
-0.4916500
0.3932100
0.3629300
-0.3812900
-0.0742300
-0.3756200
0.2425800
0.0489160
0.1238100
-0.5953400
-0.0411130
0.0209360
0.2269100
0.6279000
0.2458700
-0.8477200
0.0111920
-0.0590190
-0.0286380
0.1860900
-0.0108230
0.4857300
0.1104700
-0.2647900
-0.1694100
-0.2546600
-0.1784700
0.2625100
0.2174500
-0.0168770
-0.1751500
0.0286350
0.3323500
0.3733400
-0.2016100
-0.6887900
-0.1750100
0.4203000
0.4021400
0.1990300
-0.3595100
0.2907500
0.0041122
0.3197300
0.0328190
-0.2597500
0.2115500
0.1620100
-0.4769100
-0.2602100
0.0133010
0.1667900
0.0763150
-0.3490300
-0.2085700
0.1183100
0.5670900
0.6047700
0.0609720
-0.1119000
-0.2643800
-0.5521500
0.1816900
0.4328800
0.5608100
0.2422700
-0.1820100
-0.1842000
-0.0949580
0.6912500
-0.2610700
-0.1947700
0.1248300
-0.1991700
-0.0203540
-0.5026000
-0.3578000
0.0644910
0.7598300
-0.6160400
-0.5107900
-0.1173900
0.2562200
0.3207600
-0.2125900
0.2118700
0.0942680
-0.2172900
-0.5322800
-0.5549100
-0.0678940
0.0581980
0.2574500
0.2647300
0.2060700
-0.6147700
0.2243200
0.2967700
0.0366260
-0.9689600
0.0630380
0.1514200
-0.2742400
-0.1353400
-0.4222500
0.1029300
-0.4127100
-0.6556700
0.1478400
-0.5707100
-0.0251650
-0.1562000
0.1600900
-0.0040584
-0.3152300
-0.0286480
0.3795400
0.1186600
0.2226600
-0.1617700
0.2924600
0.1297000
-0.0881020
-0.6613100
0.2071600
0.0320280
0.2994700
-0.5511500
0.2097600
-0.2039200
-0.2946800
0.0635970
-0.1937900
0.2527900
-0.1108000
0.0156240
-0.4647600
-0.0050633
0.1093300
0.2029400
-0.0741860
0.2622100
0.0555010
0.1187500
0.4077700
-0.2429000
0.0228730
0.3292500
0.5378900
-0.5133300
0.1677300
0.0205480
-0.3331100
-0.1962600
-0.2105400
-0.1977000
-0.1074500
-0.5705300
0.4310800
-0.2150300
0.5566000
0.0517030
0.0007393
0.0300510
-0.2659500
0.3308400
-0.1649700
0.1223200
0.2706800
0.2670200
-0.3724700
-0.7238900
0.4080700
0.3239400
-0.3416800
-0.3346100
0.3362400
0.5158900
-0.1782200
0.0466800
-0.6781200
-0.0443220
0.3957500
0.1359300
-0.1097600
-0.1341700
0.4295200
0.1770800
-0.1181900
0.0314520
0.4835700
0.0647410
0.0328600
0.1082600
0.5776500
-0.1287600
0.0924690
0.2938900
0.5618200
-0.3718300
-0.1775900
-0.0686900
0.0516890
-0.3462600
-0.1008500
-0.0181120
-0.4451000
-0.0134290
0.0939680
-0.0296670
0.2275500
0.0692360
0.2716800
-0.3278900
-0.0623750
-0.2861600
0.1706600
0.2206300
0.0069007
0.1328900
0.0133890
-0.4380800
-0.0244700
0.1336500
0.0579460
0.2773000
0.3037600
0.1381700
-0.2190700
-0.1854500
0.1549100
0.3177900
0.1077400
0.0139300
0.1576100
-0.3735100
-0.1718800
0.3266200
-0.0382420
0.0981790
-0.0529500
0.0673220
-0.4838900
-0.4312900
0.1084000
-0.1033000
-0.1168800
0.0715670
-0.5414600
-0.1117900
-0.0066506
0.3097800
0.1679000
-0.5800000
0.2834000
0.0690200
0.1419000
-0.0585070
0.1846200
0.3038400
-0.0617090
0.1165600
0.1262800
0.1781900
0.3117400
0.1298300
-0.1584100
0.0706330
0.1636100
0.3839100
0.1366400
-0.0576840
0.0486440
0.4450000
0.5298800
-0.0917620
-0.0249360
0.0414320
0.0963430
0.3765600
0.3349700
0.1534400
-0.0602450
-0.0602580
0.5041300
0.3689400
-0.2036600
0.1402300
0.0384240
0.0868980
0.0583970
-0.1807200
0.2221200
0.0097591
0.3934800
-0.2398800
0.0331790
0.2538500
0.1716800
-0.0021664
-0.1412000
0.4936900
0.3594200
0.3451700
0.1501700
-0.0335480
0.3996300
0.0352930
0.2650900
0.0486050
0.1559200
-0.0319810
-0.0399390
-0.0702490
0.0457800
0.3301100
0.0768640
-0.0949500
-0.1338200
0.1953100
0.0808030
0.2637100
0.0694740
0.4107100
0.3363300
0.0279570
0.2557600
-0.1073300
0.0086892
0.5536800
0.0843290
0.1639900
-0.1057900
-0.2426000
0.3848700
0.2213200
-0.0416850
0.0556950
0.4651900
0.2828400
0.3417300
0.2524800
0.1123000
0.0360290
0.1069100
-0.0527860
0.1792300
0.1058700
-0.2886600
-0.1777900
-0.0443160
-0.0235910
-0.5431000
-0.5437500
-0.2506000
-0.1179400
-0.1057800
0.1794600
-0.1476900
-0.1793300
-0.3481500
-0.0973750
-0.0946990
0.5015400
-0.0936880
-0.2977500
-0.3032400
-0.0074224
-0.2053100
-0.2148100
-0.0576920
-0.0234570
-0.2442400
0.0900240
0.4323600
-0.3750300
-0.1870300
0.2703300
0.1627800
0.4166100
-0.1481800
-0.3501500
-0.1160000
0.1066100
0.2058400
-0.1892100
0.0221540
0.2374600
0.3953900
0.1079700
0.0694510
0.0503140
0.1752700
0.2351300
0.5622200
0.1269600
-0.2776900
-0.2307800
0.2246700
0.0911800
0.3321100
-0.3200400
0.1244300
-0.2554200
0.0554340
0.2145200
-0.1174400
0.1870500
0.0543390
0.4853500
0.1209200
0.1729200
0.0734000
-0.4394700
0.0576330
0.4363800
0.1792300
-0.2375700
-0.4469000
-0.7380800
0.1128300
-0.0418340
-0.3460000
-0.2941700
-0.3401400
0.3525300
-0.4257700
0.0731930
-0.6166000
-0.0469510
-0.2158300
0.1026700
-0.3829500
-0.2665300
0.3043100
0.1100300
-0.0666790
0.0396050
-0.1477400
0.1744500
0.7658800
-0.1410700
-0.4736100
-0.1141400
0.2071200
0.1330700
-0.3516100
0.1260400
-0.0508140
0.1576100
0.0931760
-0.2077800
0.1436000
0.0091540
0.0306700
-0.0058262
0.1274400
0.5057000
-0.0010786
-0.0168480
0.0609950
0.1229600
-0.1927700
-0.0536720
-0.1360300
0.1222800
0.1499500
-0.2278500
-0.1937800
-0.0283660
-0.3731400
-0.2121000
-0.0177410
-0.1046800
0.0820860
-0.1588600
-0.2660700
-0.2580400
0.0218770
-0.0168790
-0.2002600
-0.0621300
-0.3380500
-0.5204500
0.3517500
-0.1878800
-0.7618300
-0.2726800
0.1252700
0.5499200
-0.0697630
-0.3810900
0.2077600
0.3183100
0.1844900
-0.1386600
-0.0109030
0.1008200
0.0782380
0.3052600
0.2841000
0.2677200
0.1096900
0.0819850
0.1535800
0.2664600
-0.0492440
-0.0981740
-0.1471300
0.0671610
0.1087300
-0.0785000
0.1192900
0.4935700
0.2145300
0.0802300
0.1760700
0.3647900
0.2544800
-0.1211800
0.0375570
0.3603400
0.0815610
0.2863400
-0.2802500
0.4269500
-0.0223850
-0.3448100
-0.2280500
-0.1184200
-0.1248700
-0.1001600
0.0085726
-0.0587200
0.1921800
-0.3845100
0.0763910
0.2209300
0.1711900
-0.1727800
-0.1996100
-0.4135900
-0.2891900
0.0900170
0.1315200
-0.1888900
-0.0261030
-0.1849400
-0.0691670
0.5728200
0.2103400
-0.0869110
0.6110100
0.2354600
0.3807900
0.0546460
-0.0244510
-0.3427100
-0.0935670
-0.2039700
0.2170100
0.3679500
-0.1127400
-0.0938820
-0.1883000
0.2757900
0.0691320
0.1836500
0.1144600
-0.3677600
-0.6793900
-0.3003100
-0.0995760
-0.2363400
0.2717000
0.1273600
0.0550210
0.4396900
-0.3440500
0.1944900
0.0001534
-0.3479800
0.2345400
-0.3042100
0.4050100
0.0580030
-0.0033159
-0.1456300
-0.0976360
0.1519900
0.3231200
-0.1065400
0.1455200
-0.3250700
-0.1480900
0.0629750
0.2811700
-0.0957710
-0.1079200
0.0484940
0.4492100
-0.0056169
0.4106600
-0.1421300
0.2182300
-0.0763750
0.3733200
-0.3243400
-0.3115400
0.2594400
0.0518420
0.1663800
-0.2138800
-0.3565500
0.0380080
0.0870740
0.5737300
-0.0138940
-0.1347000
0.2388500
0.1690700
0.2314000
-0.3644600
-0.1684100
0.1480000
0.3834400
0.5057900
0.0698760
-0.1076800
-0.0391630
0.1425300
-0.1285300
0.2699100
0.1172600
0.0251240
-0.0262360
0.0651530
0.1539900
0.0292810
0.0062405
0.3543000
0.1801400
0.2045600
0.1615300
-0.0617870
0.3525600
0.2781700
0.0827050
-0.1073100
-0.0839870
0.1107200
0.1394100
0.0229150
0.2721000
0.0739410
0.1075500
0.0226610
-0.2977400
0.1676800
0.1258300
-0.1471100
0.1226800
0.2084900
-0.0372610
0.1323900
-0.4689200
0.3600900
0.1770500
-0.4304200
0.0762370
-0.0373920
-0.4852100
-0.4175100
0.0628160
0.2560900
-0.1506800
0.3126500
-0.2289000
-0.0975050
0.2471600
0.0074898
-0.1592900
-0.4262200
0.0762130
0.2266400
-0.0373260
0.1941200
0.0139140
0.2710800
0.3245500
-0.0320260
-0.0949760
0.1469600
0.0291760
0.3752600
-0.0489800
-0.5724900
-0.1667500
-0.1224000
0.3650300
-0.1164800
-0.4575600
-0.2768100
0.4549700
0.1544000
0.2386700
0.1430500
0.0260040
-0.1192400
-0.4591100
-0.4211800
-0.5876200
-0.2281800
0.0856480
0.3947300
-0.2097500
-0.1599700
0.3552300
0.1834600
0.1044000
-0.0113970
-0.3412400
-0.1774600
-0.0613890
0.1122900
0.0712660
0.0166370
0.0999740
0.1976700
0.0836360
0.4477500
0.2302400
-0.4092000
-0.5974900
-0.0116950
0.0739300
-0.5493800
-0.1501300
-0.1071100
0.4637800
0.0909180
0.5212000
-0.0385350
-0.1072300
0.2920600
-0.2179100
0.3715200
0.4893800
0.0952140
0.2443900
0.0168210
-0.1538900
0.5206700
-0.2389500
-0.3134500
-0.1346000
-0.6439900
0.0671580
-0.0850040
0.1522500
0.0314910
-0.0492350
0.1241200
0.2059300
0.2761700
-0.1108200
0.7503000
-0.2999000
0.1540600
-0.4016800
-0.0233400
0.4009700
0.1077800
0.2494200
-0.2180500
-0.4476800
0.1138600
0.0105080
0.2294400
0.6029900
0.4817900
0.4161000
-0.0300000
0.1486700
-0.0003228
-0.2116300
-0.2470800
0.1653200
-0.1059600
0.4861300
-0.3002500
-0.2913500
-0.2604600
-0.0180580
0.2096400
-0.4852500
-0.2785200
0.2683600
0.4027300
-0.3023200
0.0554450
-0.2932300
-0.1973300
0.5708500
-0.1661500
0.2163000
0.1114800
0.0247930
0.2879500
0.1341100
0.1847400
-0.1120500
-0.0193140
0.0180100
-0.0947350
-0.1607700
-0.0456830
-0.5030300
0.2553100
-0.2839300
-0.2020000
0.2877300
0.3395600
0.0795470
-0.0327380
-0.9015200
-0.0568200
-0.0063899
-0.5061300
-0.3730900
-0.3398400
-0.0180970
-0.2145300
-0.1126600
0.1495200
-0.2493100
-0.1629900
0.1407700
-0.1198500
0.3270200
-0.2742100
0.2409700
-0.2592200
-0.2694000
-0.3250800
0.1274000
-0.0501200
0.2025100
-0.2745400
-0.0976750
0.0886480
0.0941800
-0.1824900
-0.4832000
0.3543700
-0.0680000
0.1874700
-0.1044800
0.1108200
0.3450500
-0.0887560
-0.1730800
-0.0080075
0.3076500
-0.2296300
-0.4529500
-0.3586900
-0.0433400
-0.0673750
-0.0542010
-0.3891300
-0.2370200
0.0004793
0.1924000
0.7909500
-0.1436000
0.2631000
0.2040100
0.0372650
-0.2005400
-0.0081375
-0.0833560
-0.0445140
-0.4685700
0.3610300
-0.2379900
0.0806120
0.1181100
0.1444600
0.5628100
-0.0245200
0.2252000
0.2074400
0.0483940
-0.2377000
-0.3969200
-0.1774000
-0.0794570
-0.0993280
0.0993610
0.2891600
-0.0802550
0.0075248
0.1519800
0.0992150
-0.0298040
-0.1689100
0.1665600
0.1985900
0.0608320
0.2630900
0.1812600
0.2150300
0.4721200
0.5917500
-0.4502600
-0.0770780
0.2913900
0.1143700
0.0140260
-0.1828200
-0.1100500
-0.6234700
-0.0917380
-0.0586330
-0.0392050
0.0844150
0.1195800
-0.0722540
-0.1088800
-0.5736100
0.0469870
-0.1420200
0.0569080
-0.1359300
0.0088556
-0.1253200
0.5513900
0.5039500
0.1425200
0.0921200
0.4909600
0.4474300
-0.2738800
0.2211800
-0.1725400
-0.0039419
0.2510200
0.2116500
-0.4316900
0.0711080
-0.1760700
0.2428100
0.1205800
0.1697800
-0.2119400
0.2257700
0.0418410
-0.2411000
-0.0228690
0.2622500
0.3746500
-0.0439210
0.2320000
-0.0171950
-0.3632100
-0.4146000
-0.0556040
-0.2560100
-0.1347100
-0.1535100
0.2117200
0.2092700
0.3198800
0.1297000
-0.5584100
-0.2463900
-0.1320000
0.1296300
-0.3932800
0.3413800
-0.1699200
-0.2024600
0.4968800
0.1914800
-0.3650800
-0.0618470
0.1565800
0.3426400
-0.0768930
-0.0193670
-0.0782100
0.0066344
0.1893600
-0.4416700
-0.4203400
0.0156180
0.1706300
0.2681700
0.1660500
-0.0876810
-0.1102500
0.1514900
-0.0459530
-0.3274200
-0.3586800
0.1610300
-0.3336200
0.2272500
0.3430300
0.2007100
-0.3566100
0.1344300
0.0637000
-0.0432530
0.0947090
0.2044900
0.1762700
-0.5218800
-0.5435300
-0.1025500
-0.1452900
0.2846000
0.2430500
0.0161720
0.0525630
-0.2529100
-0.2310800
-0.5045300
-0.2699400
-0.3810200
-0.3134800
-0.0103840
0.3468400
0.2012200
-0.0742840
-0.2140200
-0.0510270
-0.2404900
-0.1972800
0.0244050
-0.2687100
-0.5176500
-0.0455540
-0.4410200
-0.0595010
0.0074283
-0.4058100
-0.4639900
-0.0044462
-0.1286800
0.3328000
-0.2458900
-0.2538800
0.1569400
-0.1249400
0.0316970
-0.1639800
0.0391930
0.4853400
-0.5174000
-0.3742400
-0.3445800
-0.1340000
-0.0092104
-0.2750500
0.0727350
0.0781880
0.0532310
-0.1455700
0.1441900
-0.6122200
0.1078600
-0.0428250
-0.0064011
0.2711700
0.2831100
0.6895700
0.4525800
0.1986300
0.2816400
0.5652500
0.6951400
0.1168400
0.1860900
-0.3680400
-0.4287900
-0.5146300
-0.6495700
0.0729400
-0.2957500
-0.3409000
-0.5859600
-0.5805600
0.1868800
-0.0852260
-0.2909400
0.0314260
-0.1100700
-0.1154800
-0.0490790
0.2517800
-0.3653900
0.3901900
0.0400310
0.3932300
-0.5423600
-0.1735300
-0.0793950
-0.2917400
-0.1209200
-0.3252400
0.1822200
0.3759600
0.1934600
-0.2650000
-0.2380600
0.0917660
-0.0346850
-0.0684600
-0.3478100
-0.1678200
0.0561770
-0.0864600
0.1284100
-0.1243600
0.0548260
0.4059300
0.2069500
-0.0866310
0.3541300
-0.2534200
-0.1178000
0.0489990
0.1160100
0.1756600
0.3596900
0.1808100
0.1464100
-0.1011600
0.2546300
-0.2545700
-0.2628200
0.0500890
0.2221100
-0.0556890
-0.0361770
0.1722500
0.1899200
-0.0747140
-0.0438630
0.1478400
-0.2026200
-0.1000400
0.0017861
-0.2640700
-0.4133400
0.0399840
0.0958110
0.1992900
-0.9021400
-0.1535200
0.2841100
-0.0437240
0.1091300
0.0504100
0.5932600
0.3622000
0.0169150
-0.0094208
0.0861460
-0.3315200
-0.2310300
0.0916720
0.1130100
-0.4130600
-0.3070100
-0.1081600
0.1436000
0.4268600
-0.5422300
0.0464030
0.3791700
-0.0985970
0.1891000
0.3320600
0.6848300
-0.2193100
-0.2353100
0.2618800
0.5368800
0.5288000
-0.2371200
-0.3206300
-0.1493200
-0.1048400
0.3762100
-0.3198900
0.0397370
0.1864400
-0.4704300
0.0973440
0.0897220
0.0592500
-0.0269320
0.3067900
0.4642800
0.0437120
-0.1942700
0.1995300
-0.0908410
-0.0334990
-0.3526600
0.0922400
-0.0946030
0.3364900
0.0364440
-0.5430000
0.1046000
0.1205500
-0.0528180
0.0462820
0.4211100
0.3816100
0.2778800
-0.0561210
0.0656930
0.3845800
0.2253800
0.4343400
-1.0109000
-0.3714700
-0.0201580
-0.0929520
-0.1500700
-0.3235000
-0.0755550
-0.0239450
-0.2297500
-0.1748700
0.5943300
0.7063300
0.1859800
-0.2156500
-0.5574800
-0.4856400
0.1560700
0.0168280
-0.2298700
-0.5301400
-0.0097851
0.6673300
0.3137200
-0.0711180
0.1548600
0.1049900
0.4181300
-0.0702030
-0.2508500
-0.0591480
0.1728500
-0.0998030
-0.7417300
0.1269900
-0.2593500
0.1754300
-0.1541600
-0.0947000
0.0212930
0.1169800
-0.3927900
-0.1932500
0.1119500
0.2402100
0.5442400
-0.4043600
-0.8358800
-0.1599300
0.4210200
-0.0460670
-0.3040100
-0.0196110
0.5262300
0.3444000
0.3082600
0.2586200
0.5304600
0.1129000
-0.0823710
-0.0627820
-0.1322300
-0.0177490
-0.1951000
-0.1736300
-0.3950400
-0.1831800
-0.0691560
-0.0079370
0.0840290
0.3472000
0.1982600
0.0712520
0.1964000
0.2260800
0.2744100
0.0688470
-0.7243200
-0.5993900
-0.3526400
-0.1624500
-0.2126200
-0.2764800
-0.3464800
-0.0192770
0.3669400
0.3091800
0.2937000
0.0709560
0.0342300
-0.0774630
-0.0431140
0.0494680
0.6461300
-0.0388470
0.1269400
0.1782000
0.3837200
0.1071600
-0.0219500
0.0950950
-0.2700400
-0.2311100
-0.2924800
-0.0010458
0.1993700
-0.5569000
-0.2252500
-0.0945110
0.4348400
0.0719180
0.2485800
-0.0898050
-0.2522300
0.0848050
0.3983900
0.1694500
-0.2001900
-0.1533600
0.0135070
-0.0294320
0.0897160
-0.0285490
-0.0199230
0.0064308
0.0699490
0.4770700
0.6069300
0.0668830
-0.0873870
-0.0280520
0.1866800
0.1105400
0.2706200
0.1510300
0.1862800
0.3652000
0.3393300
-0.0308110
-0.5078500
-0.0700890
-0.0033271
-0.3537700
0.2968900
-0.2499700
-0.4416400
-0.7928100
-0.4997800
-0.2800200
0.3745900
-0.2310400
-0.2621200
0.2936200
0.3368400
0.4007600
0.4217000
0.6153600
0.5094500
0.1034800
0.1461000
0.0226800
0.2450600
0.0843000
-0.6508300
-0.2081700
-0.0129790
0.0781830
0.3045700
0.2663900
0.2101000
-0.2766000
-0.3262100
-0.5209800
0.3686600
0.2593100
0.0184480
-0.3008600
-0.0992120
0.2113300
0.0379220
-0.5353500
-0.3972200
-0.2174400
0.1245100
0.2949700
0.0028181
0.1532600
-0.0113810
0.1670200
0.4012500
-0.2403700
-0.2946900
-0.0443770
-0.1142300
-0.4456900
0.1091100
0.1625900
0.1254500
-0.2661500
-0.0735160
0.0829610
0.1560600
0.2710200
0.3667600
0.0871240
-0.3551100
0.0537530
-0.2237400
-0.0068352
-0.3730600
-0.0657200
-0.0494940
-0.0567900
-0.0735250
-0.3963300
-0.2624800
-0.1983500
0.1796900
0.2263200
0.3401700
-0.3099900
0.1927500
0.3360600
0.3811700
-0.0887510
-0.1420500
-0.1534700
0.2110800
-0.1662800
0.1175300
-0.0277930
-0.5162200
-0.4872900
-0.4015700
0.1172400
0.1332400
-0.4681300
-0.0873770
0.0797110
0.0660310
0.5332300
0.5899800
-0.4595500
0.5704600
0.4419400
0.2028100
-0.1889300
-0.0332200
-0.1490400
0.1178900
0.2971800
0.1693400
-0.1249900
0.2505000
0.0286520
-0.2041400
-0.2778100
-0.2565000
-0.0856970
-0.2206100
-0.4372600
0.0380550
-0.3459400
-0.2271300
-0.5391200
-0.4841000
-0.0071025
-1.0597000
-0.2115700
-0.1451900
-0.3008500
0.0334630
-0.1829000
0.1500400
-0.0360130
-0.0865050
-0.2020900
-0.1163800
-0.0641450
-0.3389700
0.2464600
-0.1557900
0.1061300
-0.0009695
-0.3032000
0.1319300
-0.2306200
-0.1554400
-0.0801190
0.1915000
0.2926800
-0.1848200
-0.8167100
-0.1919800
0.0440570
-0.0494630
-0.0824030
-0.1720800
-0.2565100
-0.0011277
0.0571740
0.2289700
0.4180200
-0.0996600
-0.0601040
0.2784200
0.1842800
0.1779200
0.1383700
-0.0751660
0.5513100
-0.5690300
-0.0390350
-0.0475090
0.0986980
-0.0542940
0.3529800
0.3224100
0.5368400
-0.0536980
0.0911610
-0.0468460
-0.2262300
-0.4982900
0.0812350
-0.1709000
0.0238180
0.1114700
-0.1618600
0.0371470
-0.0097738
0.2327100
0.4241600
-0.3130700
0.0182660
0.1862900
0.1969900
-0.3023100
-0.0813210
0.3029000
0.2368600
-0.1023700
-0.1621600
-0.1077300
0.0192330
0.1871800
-0.1728800
-0.1535200
-0.1317800
-0.4901400
-0.2732400
-0.1712800
0.0997480
0.5708800
-0.3518700
0.0443990
0.2434900
0.3326000
0.3575400
-0.1565000
-0.3148300
0.0457250
0.2701600
-0.1038400
-0.7320600
-0.4185500
0.0623090
0.1249400
-0.2635700
0.1444300
0.3552400
0.6744800
0.2499900
-0.2439800
-0.1781300
0.0573120
0.0302930
0.1930300
0.2501200
0.2679200
0.5901600
-0.1161300
0.2535100
0.0089435
-0.2097700
0.0544150
0.1840000
0.3980200
-0.3686500
-0.4064200
-0.4884800
-0.3308400
-0.4719700
-0.2003500
0.0353770
0.1943400
0.0224770
0.1029100
-0.1872200
0.1841700
0.3229400
0.0706800
-0.2667400
0.3069900
-0.0167880
0.1378300
0.3218400
0.2458700
0.0015320
-0.0491010
-0.1125900
0.2552800
0.6396300
0.4275700
0.5746200
0.2702300
0.2555700
0.2237600
-0.1363500
0.2725000
0.4632100
-0.1108300
0.3675700
-0.2473800
-0.1777000
0.2049800
-0.2935400
0.2259200
-0.0638780
-0.1401600
0.2851100
-0.3036300
0.5188500
-0.2235500
-0.0566800
-0.2618500
0.1803300
0.2186100
-0.1715400
-0.3112000
-0.3130400
-0.0784930
-0.1419000
-0.3948300
-0.0762580
-0.3974200
-0.2007800
0.1658500
0.5226900
-0.0157860
-0.2906600
0.4088200
-0.1097100
0.1863800
-0.1354700
-0.1032800
0.0010104
-0.1835900
-0.0795710
0.1637300
0.4433500
-0.5981700
-0.0685430
0.3777600
0.3938800
-0.1168000
-0.0051442
-0.1622900
-0.3761200
-0.0303040
0.4155600
0.1311200
0.1560100
0.2729900
0.1380000
0.1815900
-0.2103300
0.3390400
0.0483070
0.0515790
-0.1472100
-0.3919800
-0.4354800
-0.3359400
-0.1440300
-0.0911830
0.4606500
0.1927400
-0.0949720
0.1255000
-0.3906000
-0.2204400
-0.2880700
0.1066100
0.2023500
0.2955000
-0.1518100
-0.2898400
0.2968500
-0.1653500
-0.2131800
0.2390700
-0.0942890
-0.1974800
-0.3098500
-0.2627600
-0.1859200
-0.1584200
-0.0968890
-0.0277170
-0.4963800
0.1769000
-0.0941630
0.3376300
0.0738730
0.3291700
-0.0039487
-0.2819600
-0.4215300
-0.3365000
0.1902800
-0.0901210
0.1901400
0.3727100
0.0055056
0.0305310
-0.1147000
0.1693400
-0.0719600
-0.1334200
0.2141500
-0.3751400
-0.0018998
0.0822190
0.2691200
-0.2647600
0.1511200
0.0803330
0.0185530
-0.4346200
-0.3963900
-0.0117390
0.3223100
0.0006273
-0.3056300
-0.1219700
0.3815900
0.2379200
-0.2366800
-0.2496500
-0.1785900
0.0269700
0.0365830
0.2067300
-0.2162600
-0.0969980
0.0917190
-0.2321800
-0.2587300
0.2126500
0.3255500
-0.0893300
-0.1871900
-0.2840500
0.2101800
-0.2308700
0.0450160
-0.1071600
-0.1161700
-0.2039200
-0.1535700
0.0303840
0.0130130
-0.2871300
-0.1284900
0.3177700
0.6382600
0.0529170
-0.4408200
-0.3055200
-0.4282800
-0.1830200
-0.3001300
-0.1486700
-0.1240400
-0.0734400
-0.2816300
0.0280660
0.7845700
0.6817900
0.8421500
0.1851900
0.2074600
0.2359500
-0.3905900
-0.2402900
0.0388350
0.0075512
0.1706300
-0.1830000
0.2258700
-0.0047088
-0.3703100
0.0362080
0.3484900
-0.2002400
-0.5685100
-0.0946340
0.0537950
0.5456200
0.0772020
-0.1826900
-0.3448500
0.1386700
0.0719190
0.2042900
0.1815600
1.0235000
0.5640300
0.3348300
-0.0232780
-0.2507700
-0.0675360
-0.0971750
-0.1083600
0.3244600
-0.3511800
0.0077551
-0.0412650
-0.1310000
-0.0565760
0.0737480
0.4005700
0.0691290
-0.0791900
-0.1698600
-0.1141100
-0.3455700
-0.2792800
-0.0003387
-0.4250000
-0.6058900
-0.3401600
-0.0598760
-0.2578900
-0.4111900
-0.0431710
-0.4645500
-0.1584800
-0.5839800
-0.3347600
0.1378200
0.2566100
-0.1782500
0.0912250
-0.2590000
0.4129700
0.3243200
0.5389800
0.1142600
0.0711150
0.1025600
0.3261600
0.3663100
-0.0503850
0.0426000
0.0638170
-0.3697100
-0.1284700
0.3946000
0.4860400
-0.2831700
0.5327400
-0.4427100
0.2195800
-0.0477600
0.1244400
-0.3897100
0.2408500
0.2744600
-0.1954400
0.3173300
0.5761400
-0.1255300
0.4055200
0.1755600
0.4131000
-0.0690370
0.0746030
0.3329100
0.0088700
-0.1160700
-0.2021700
-0.7974400
-0.4290300
-0.3028400
-0.1148700
-0.3068900
-0.3817300
-0.0724740
-0.1053000
-0.1189000
0.0958160
0.5334300
-0.0427170
0.0522470
0.1391000
-0.1017000
-0.1663900
0.0854870
0.1993300
0.8353200
0.3458200
0.1274400
0.2717600
0.2715700
-0.1393100
0.4821400
0.2235700
0.5055900
0.3894100
-0.0343970
-0.0908290
-0.1283700
-0.0551590
-0.4977000
0.2798500
-0.3518600
0.0820010
-0.2113800
0.0981430
-0.1543800
-0.3073900
-0.4337500
0.3322600
0.3144800
-0.2697400
-0.5475100
-0.2155500
-0.3855900
-0.5351800
-0.4354900
-0.3782100
-0.2899000
-0.3687300
-0.1663800
-0.3404500
-0.2300500
-0.0027016
0.2351300
0.8211300
-0.4419500
-0.0152140
-0.0688520
-0.0154830
-0.5362800
-0.2908000
-0.1819500
0.0441240
0.0280560
-0.2622100
0.0966720
-0.1450600
-0.0350390
-0.1006800
0.0757550
-0.3850100
-0.2670700
0.3324100
-0.2576300
0.0113410
-0.1630400
0.1059200
-0.0679560
-0.2254500
-0.0144420
0.0539460
-0.0117340
0.1445500
0.2864100
0.6541400
0.0794720
0.3729100
0.1104300
0.1282400
-0.5497500
0.0050093
-0.3017000
-0.3983200
-0.0750810
-0.4931600
-0.1855300
0.1572800
0.5421900
0.2953700
-0.1744600
-0.0795330
-0.0432390
0.0796310
-0.0274190
0.3112200
-0.0887390
-0.2138100
0.1134000
0.4855000
0.5933600
-0.0013640
0.3137900
0.4443800
0.0439030
-0.1397100
-0.3617400
-0.4338800
0.0706720
-0.3049300
-0.6549200
-0.0921650
-0.0993310
-0.1644600
-0.3206300
0.2133800
0.3204600
-0.0519770
0.1351400
-0.1963100
0.0452200
0.0481620
-0.1241300
-0.0674070
0.2648300
0.3331900
0.2531200
0.1652400
-0.3083000
0.0941380
-0.4299800
-0.0046630
-0.0708980
-0.0664120
-0.2193700
-0.3121300
-0.3093300
-0.1677900
-0.1500000
-0.1511100
-0.0836460
-0.4317200
-0.3111700
-0.1630700
-0.0313640
-0.3178500
-0.2994000
-0.6070700
0.3195900
0.3450200
0.3015700
-0.0935990
-0.2798700
0.2737100
0.5717100
0.1042800
0.0538970
0.4341900
0.5744900
0.4366900
0.1310100
-0.3051400
-0.2702200
-0.3378500
-0.4756600
-0.5013400
0.0901560
0.1777300
0.4331200
0.5211900
0.4429400
0.0185630
-0.3672600
-0.3950000
0.5679700
0.2863600
0.2014600
0.1662900
-0.0204630
0.2896800
-0.5630500
0.1279100
-0.0233270
0.0915170
-0.0227320
-0.0223590
0.1278700
0.1174600
0.1626900
0.4338900
0.1422900
0.2688800
0.2970200
0.2270600
0.0882700
-0.2690900
0.2968500
-0.1508900
0.0487260
-0.3838700
-0.7077100
-0.4854200
0.2616100
0.4973600
-0.1856200
0.6733600
-0.3200500
0.0963460
0.1839000
0.1924200
0.5468700
-0.4900600
-0.4634700
-0.7012200
-0.6019700
-0.2070900
-0.1721800
-0.6830700
0.2372500
0.8523200
0.5780800
-0.0956240
-0.1329100
0.4587300
0.0340480
-0.0225750
0.4204800
0.0420250
-0.1563200
-0.5821800
-0.2278800
0.1290300
-0.0743160
0.1671700
0.3151300
0.1796900
0.0881680
0.2685600
-0.0341550
-0.1885400
0.0970550
-0.6457300
-0.1276400
0.3183500
0.0487840
-0.1637900
-0.1204300
-0.3387900
0.2213700
0.3839600
0.4556900
-0.0996380
0.3843600
-0.1208100
0.1406000
0.0679660
0.2715400
0.2806400
-0.4394200
0.0291600
-0.3338200
-0.1091100
-0.5777400
-0.0047452
0.1820500
-0.2234100
-0.0218410
-0.0519770
0.1440700
0.3112000
0.3640900
0.4905600
0.1709300
0.1650200
0.4172900
0.8542600
-0.0239620
0.2356100
0.1031700
0.0935550
0.3035900
-0.1640800
0.6173400
-0.0663530
0.1725400
-0.4154100
-0.3281500
-0.1714200
0.0080100
-0.0278700
-0.3226300
0.0405580
0.2757600
-0.0014893
-0.3576800
0.2748800
0.0216730
0.2064300
-0.1672800
0.3563100
0.5003400
0.1405000
0.2010400
-0.3898400
-0.1451400
0.0063218
0.0370560
0.3185300
0.0252590
-0.3368900
-0.6060500
0.5653900
0.0256310
0.0956610
-0.0679090
0.0525810
0.1535400
-0.3162400
-0.4016500
-0.4170400
0.0480560
0.1712800
0.0915700
0.0914940
-0.0685160
0.3820300
-0.0428720
0.1221300
0.2217700
-0.1790000
0.0143710
-0.1629300
0.1401600
0.5010400
-0.3398200
-0.6072000
-0.0436530
0.4196100
0.5197800
0.2482400
0.0138900
0.1422000
0.3872500
0.1216900
-0.1175100
0.0787550
-0.3159900
-0.2340500
-0.3908000
0.0234410
0.4934000
-0.0645370
-0.0756280
0.2275400
0.2445900
0.2672100
0.3829100
0.0662630
-0.2143700
0.4693100
0.0589750
-0.2547000
-0.4085300
-0.6163900
0.3273500
0.4833600
0.4134100
0.0708700
-0.0298970
-0.3463400
-0.3965700
-0.5385300
0.0058113
0.4687200
0.1359800
-0.0981890
0.1513300
0.5974500
-0.1185100
-0.1982100
-0.0753390
-0.2157500
-0.3746500
0.0766460
0.3047000
0.5315800
0.2212500
0.3610600
-0.3649900
-0.0098870
0.0496210
0.0814570
-0.2258900
-0.6050700
-0.0054957
0.5406000
-0.2155600
0.0595970
0.4892600
-0.2272500
0.0518350
0.0626090
-0.0801790
-0.4234500
0.1109100
0.0319630
-0.0055062
-0.1173000
0.0143220
0.5319800
-0.1163400
0.0588090
0.0061597
0.0493270
-0.4888000
-0.0231890
0.0491470
-0.0231160
0.2686400
0.1415100
-0.0031248
0.2834600
0.2145400
0.3046600
0.0293230
-0.2531800
0.3822000
0.2057800
0.3224500
0.0340540
0.3702800
0.0425150
0.1721700
0.0612690
-0.2233400
0.1841000
-0.0839440
-0.1866800
0.1200000
0.0719850
0.0524060
0.3391000
-0.2235600
-0.4192000
-0.2024600
-0.1151800
0.1441200
-0.0988520
-0.5127600
-0.1296400
0.6421300
0.2766000
-0.0075715
0.3753000
0.2653200
0.3348600
-0.1140200
-0.3281400
0.1942100
0.0099617
0.1248300
-0.2765200
-0.1581500
0.2643700
-0.1159700
-0.4557000
-0.1711100
0.4947800
-0.0857410
0.0570340
-0.1352300
0.2355000
0.2420300
-0.3139100
-0.0512980
0.0415020
-0.1152100
0.1125800
0.7202000
0.2302400
0.2551400
0.3515100
-0.2160800
-0.0815560
-0.1166500
0.5271700
0.0800290
-0.2573600
-0.3441700
-0.1219900
-0.1151100
0.1214700
0.0183790
-0.1374200
-0.3932800
-0.3386200
0.1301400
0.1123400
-0.1191000
-0.1451400
-0.2742100
0.1923300
0.0880000
-0.3682500
0.3360400
0.2711400
0.5285400
-0.1372400
-0.3664500
0.2853600
0.1370800
-0.4116700
0.4521500
-0.0730380
-0.3080100
-0.1195400
0.4682000
-0.1168900
-0.1295100
-0.3906700
0.1146800
-0.4184200
-0.6123100
-0.3459800
0.1835700
0.0373010
-0.3588300
-0.1384100
0.2786900
0.1605900
0.2940500
-0.1269600
-0.6908100
-0.0686780
0.2653100
-0.1155300
0.1705200
0.0969470
-0.2025600
-0.2488100
0.5330000
0.1502700
0.1157400
0.2131700
-0.7358800
-0.3365300
0.4741100
0.3969300
-0.1591400
-0.3330200
-0.2048900
0.2126200
-0.1785300
-0.2200700
0.1781000
0.3642500
0.4275800
0.2571900
-0.1151700
-0.2594500
0.4132300
0.1014100
0.2850800
-0.1739800
-0.2389600
0.2134300
0.3040500
0.0287820
-0.5428100
-0.2720100
0.1534200
-0.0660210
-0.0737320
0.3834000
-0.0328490
-0.0466120
-0.6060700
-0.6429100
0.3834800
0.7717000
0.4149700
0.4657500
0.1374600
0.3354100
0.7295100
-0.2466900
-0.0233780
-0.0627920
-0.1734900
0.0563830
0.2434800
-0.0447670
-0.6075800
-0.2981300
0.1018800
0.0717740
0.2545300
-0.0661320
0.1202000
0.0900500
-0.2227900
-0.0325350
0.2360600
0.4236200
0.0169460
-0.6536100
-0.0537100
0.5974200
0.0848190
-0.2742700
-0.2841800
-0.2189700
0.1980400
0.3689500
-0.1799100
-0.2357500
-0.1891200
0.1143900
-0.0456190
-0.1371800
-0.6455800
-0.0964020
0.0043516
0.3106100
0.5477600
0.3481100
-0.2247300
-0.4175200
-0.2122300
0.5322500
0.3638500
0.0640670
-0.1212000
-0.4379400
-0.3634000
0.1195000
0.3224000
0.1005500
-0.0626770
-0.2738600
0.2911600
0.2564200
-0.2910500
0.5752300
0.0735830
-0.2559200
0.6046300
0.2774400
-0.0336290
0.0140180
-0.4629000
0.3037400
-0.0530130
0.0249160
0.2655500
0.2478800
-0.4258400
-0.3233100
-0.1093400
-0.5528900
0.0820870
-0.1865000
-0.1494600
-0.0768550
0.0389140
-0.0293390
0.0114210
0.5474000
0.2212900
0.3577200
-0.1822900
0.0442910
-0.1495400
-0.5458400
-0.2770900
-0.3466900
0.0885980
0.2750100
0.2634600
0.1575000
-0.0861060
0.2409400
0.3594900
-0.1026000
-0.0637180
-0.2952100
0.1634900
-0.2785100
0.5176900
0.2742600
-0.3786100
-0.3191500
-0.6964800
0.0847380
0.3916900
-0.4049900
-0.3487900
-0.0578020
-0.0972060
-0.6119200
-0.1446200
-0.1036000
-0.0519490
-0.6050000
-0.5173900
-0.1416600
0.0487860
-0.3433700
-0.8714800
-0.2686700
0.1204300
-0.2630000
0.7339200
-0.2489400
-0.0015644
0.0884850
-0.2565800
-0.4803100
-0.3584300
-0.1634200
0.3600100
-0.5422800
-0.5336500
0.2373500
0.0591610
0.2628400
0.0939070
-0.1125900
0.1754600
0.4161700
-0.2012800
-0.0773090
-0.1091200
0.3577100
0.2598200
-0.5862900
-0.4784900
-0.0977680
0.1210200
-0.0121480
-0.5591300
-0.7757900
-0.4552700
-0.6152100
-0.2658800
-0.1838900
-0.5222800
-0.2851600
0.0385570
0.2275400
-0.1000700
0.4384600
0.3975000
0.2359300
-0.1051600
0.0818900
0.3110900
0.1171200
-0.1253800
0.0433920
0.4445700
-0.0987460
0.6568000
0.7473700
-0.1853300
-0.1468300
-0.1504600
0.1182800
0.2252200
0.6256900
0.5032000
-0.1901800
0.2597400
-0.8698200
0.2619200
-0.6132400
0.2365900
-0.1139600
-0.6734100
-0.1632100
-0.0381910
0.2679700
-0.0297570
0.1994500
0.2992000
0.3428800
-0.8653300
0.0242720
0.1790800
0.1069300
0.0927010
-0.4994700
0.4684400
0.4167700
-0.1460400
0.1527700
-0.2296800
-0.1407200
-0.1005700
-0.0300310
0.0625180
0.1752100
-0.0340990
0.0582160
0.2257000
0.3817300
0.2633500
0.4507900
0.4482300
0.1690300
0.1028000
0.3968000
0.3030100
0.1041400
0.3708000
0.3532800
-0.3839800
0.2964500
0.3936700
-0.0618050
0.1291700
0.0268490
-0.1716600
0.1270900
0.1533600
0.4210600
0.0378930
-0.4255300
-0.4655300
-0.0558400
0.5416800
-0.0137540
-0.2027100
0.0673440
0.6166400
0.2315000
0.4168400
0.3293300
0.1923600
0.1256000
-0.1198000
-0.4583600
0.1665700
0.0889200
0.0458470
0.3770700
-0.1744400
-0.3894200
0.4578400
0.7855100
0.5448500
-0.7912300
-0.6582700
-0.0042838
0.0821200
0.0586370
0.4678400
-0.0098195
-0.4605800
-1.0163000
-0.7324200
0.0642690
0.1648700
0.2842900
0.3254700
0.1869000
-0.4663900
-0.5137900
-0.0869830
0.1517900
-0.1292900
-0.4118700
0.0812010
-0.1742700
-0.1998400
0.2930000
0.1881500
0.4382300
0.3379000
0.0854330
0.3215200
0.2930300
0.1746600
-0.2544900
0.6033200
0.5454200
-0.3930900
0.0967010
0.6349200
-0.0180120
-0.4552600
0.3173400
0.0616930
-0.2499300
-0.2104200
-0.3311800
0.2997500
0.0502870
-0.0360820
-0.2256000
-0.3843900
-0.3003600
-0.3555300
-0.4324300
0.1403500
0.1792700
0.4974400
0.2242900
-0.2824100
0.0403940
0.0308830
0.0204560
-0.1766500
0.2259000
0.1213000
0.2901800
-0.4944900
-0.4760000
-0.3523600
0.0256080
0.3360300
-0.2437600
0.0877680
0.2458700
-0.1230800
0.0749980
0.2740000
0.6322600
0.2236200
-0.5300200
0.1144800
0.0590510
0.0450540
-0.5634600
0.0819260
0.5161000
-0.2308100
-0.1111600
-0.0395700
-0.1047000
0.1787900
-0.0172370
0.2342900
0.4678200
0.1250800
0.1358600
-0.4780800
-0.6409200
-0.3919200
-0.7091500
-0.1797500
0.2505200
0.3919200
-0.3639600
-0.5087300
-0.0912500
0.3637300
0.0828570
0.0194470
0.0015249
0.1534100
-0.5095700
-0.4385300
-0.1581000
-0.0028058
0.2968300
-0.1338600
0.0354250
0.4853700
0.1177900
-0.3385700
0.1830700
0.2843300
0.2368000
0.1455200
0.0817170
0.2666300
0.1376000
-0.0948270
-0.2364000
-0.2673700
-0.1621700
-0.0312640
-0.6127200
-0.1709100
-0.1618200
-0.1865000
-0.4308500
-0.0788540
-0.0946810
-0.2344400
-0.2390000
0.6333000
0.0551030
-0.2302700
-0.0099707
0.4938500
0.6176900
-0.1197500
0.2243700
-0.3674500
0.1239600
-0.1362700
-0.3258500
-0.3341500
-0.0724310
-0.3816500
-0.2075800
-0.1326400
0.1080100
0.2120200
-0.0735560
-0.2334300
0.2771300
-0.0272890
-0.5373400
-0.2564800
-0.6227200
-0.0837600
0.0691090
0.3639000
-0.3586700
-0.3415900
0.2440300
0.2937900
0.6960800
-0.1498100
-0.0356500
0.2635200
0.5718400
0.4939400
0.0474740
-0.1881900
-0.2259500
-0.0858970
-0.1453300
-0.5205800
-0.0829970
0.0106040
0.1085300
-0.1614700
-0.5271000
-0.2581300
-0.2316200
-0.4044000
-0.1251100
-0.2369800
-0.2722300
0.0250800
0.1111200
0.4609600
-0.9955000
-0.2107100
-0.2220200
-0.0058586
-0.3774700
0.1066600
0.3049000
0.5961400
0.4706600
-0.0465210
-0.1939500
-0.0706620
-0.1252000
0.0720200
0.2136300
-0.1563800
0.0671270
-0.1462700
0.0055244
-0.4190800
-0.1338700
0.5749400
-0.3615100
0.1977000
0.1601000
0.3636800
0.0470510
-0.0973500
0.2981400
0.2162100
0.5707700
0.9516600
0.4018800
-0.0203960
-0.1245600
0.2374200
-0.1056200
0.1857800
0.1825300
0.1715400
-0.0558590
0.1129700
-0.2578600
-0.4870600
-0.2410000
-0.1376600
-0.1168400
0.2638300
0.1826300
-0.0478530
0.0609690
0.0977600
0.3088200
0.0310880
0.1802000
0.0685200
-0.0617560
0.4452600
-0.0415180
0.1754300
-0.1464500
-0.2152400
-0.2310200
-0.2303700
0.2576500
-0.2008100
0.0621950
0.2356900
0.1557800
-0.0947390
0.0435780
0.3804400
0.0483980
0.3556700
0.5963700
0.0392160
-0.0144930
-0.5242300
-0.1159300
0.3954400
-0.3475500
-0.3196900
-0.1985900
0.2983200
-0.0937020
-0.2373700
-0.2685400
-0.3018100
-0.0478610
-0.3677100
-0.0450560
-0.0539080
0.3128100
0.3069600
0.0487960
-0.0928110
0.1530900
-0.4387500
-0.4733600
-0.5793100
0.1961300
0.5737500
-0.2865500
-0.9211800
-0.1170100
0.0730040
-0.0099860
-0.4624400
-0.0767110
-0.0352150
-0.3648500
-0.0524320
-0.0185530
0.3426200
-0.3106800
-0.2873500
-0.1112900
0.1972600
0.2660400
-0.0728140
0.1210800
-0.4208700
-0.1651500
-0.1136800
-0.0412000
-0.0589700
-0.4065600
-0.0847000
0.0257540
-0.1063100
-0.0553710
-0.3881100
0.0701390
-0.2401800
0.2584800
0.0869780
0.0579410
0.0337870
0.0811880
0.3892800
0.2114900
0.0634630
0.1108300
0.0604400
0.0253730
-0.1873000
0.4492900
-0.0154840
-0.0030774
-0.1301900
-0.2766700
0.2749600
-0.2547700
-0.3237100
-0.3650600
0.0404970
-0.0180360
-0.4783800
-0.4546000
-0.0672380
-0.5180900
-0.7426500
-0.5253800
-0.4523900
-0.1983100
-0.1452000
-0.0666450
-0.1792100
-0.3299000
-0.1075400
0.2652800
-0.0777500
-0.0108090
-0.1708200
-0.1357100
0.0020457
0.1086300
-0.1130400
0.1299300
0.0155540
-0.2604700
-0.3169300
0.2237200
-0.0254510
0.2876400
-0.2846000
0.1035400
0.0218850
-0.0003851
-0.1234300
0.1248100
-0.3356000
-0.1589700
-0.1918100
-0.1020900
-0.6551200
0.1804700
0.2840800
0.2210500
-0.0333630
0.2863800
0.7305700
0.5575900
0.1798800
0.0025668
-0.3387000
0.1789600
-0.0505470
-0.1241300
-0.0550680
-0.5501400
0.1926400
0.0499610
0.2770600
0.7018700
-0.2802800
-0.1385900
-0.0780520
0.2129100
0.1993500
-0.2124900
-0.3282800
-0.3116000
-0.0234240
-0.2977400
-0.0268670
-0.0152860
0.1514100
0.2335300
0.0133720
0.0465630
0.0789090
-0.3101100
-0.0894090
0.1097100
0.4886700
0.3174400
0.2259000
0.1145800
-0.0436490
0.2039900
-0.0140900
0.0331200
-0.4204200
-0.2951400
-0.3402500
-0.0778350
0.1535500
-0.4334700
-0.2275000
-0.0511880
0.2054200
0.1618900
0.1579000
0.3860200
-0.1021300
0.9385000
0.9630600
0.2289600
0.4167700
-0.4887900
-0.2994300
-0.4456300
0.1705600
-0.5178800
-0.0982810
-0.2527400
-0.0325220
0.4939200
0.1112600
-0.1678600
-0.2570900
-0.0191720
0.0453750
0.0777990
-0.0012848
0.2259900
-0.0771570
-0.0331370
-0.1302800
0.3477400
0.0361570
-0.1808900
-0.0943410
0.0043513
0.1741600
0.1154100
-0.1667600
-0.6326000
-0.3281000
-0.1311100
-0.0074817
-0.3944300
0.1454400
-0.0731250
-0.2290400
0.1529000
0.5001300
0.3076400
-0.2387400
-0.1897900
0.0029511
0.1176300
-0.3427800
-0.9411801
0.3215800
0.6202900
0.3153700
0.2414900
-0.0490800
0.1352100
0.4517900
0.3683800
-0.1102900
-0.4830900
-0.0021477
-0.0090249
-0.3847600
-0.3668600
-0.4663500
-0.0067691
-0.1947100
0.3049200
-0.0144670
-0.1922700
-0.4641000
-0.1457600
-0.1397200
0.0558130
0.0608870
0.3175100
0.2839900
-0.0242370
0.0089887
0.2003300
-0.0912420
0.2651200
-0.2093300
-0.6808200
-0.5738600
0.0764910
-0.2583600
-0.1254100
-0.4195900
-0.4604300
0.1383400
0.1029300
0.0253660
0.1251300
0.0096681
-0.3192600
0.0912470
-0.1188800
-0.4641900
-0.2765700
-0.4655600
-0.3237500
0.1690800
-0.1619600
0.1841800
-0.2198800
0.2243100
0.2482600
0.1823400
0.2619500
-0.7577600
-0.0285930
-0.0850020
0.0714070
-0.0110900
0.2627900
0.1269700
0.0313720
-0.0707840
-0.3738800
-0.1997600
-0.2684900
-0.1190700
-0.0015988
-0.0928530
0.5903900
0.0861710
-0.0920910
-0.0178950
-0.3888700
0.1903000
-0.1745300
0.0004724
0.0423690
0.0276750
-0.3293300
-0.2267800
-0.0911100
0.2045100
-0.0003822
-0.5256100
0.5163000
0.1630800
-0.5136200
-0.4871800
0.5208000
-0.0674470
-0.3539900
-0.0073912
-0.0035348
-0.2160600
-0.2447900
-0.3559600
0.0431180
-0.1427800
-0.3408600
-0.0816380
-0.1418800
-0.1285300
-0.1191400
0.1897500
-0.0590040
-0.7657900
-0.5041600
-0.2290000
0.1999800
-0.1704600
-0.3752100
-0.4665900
-0.1747100
0.2504000
0.3114900
-0.1290200
-0.1891900
0.2465200
0.1336300
0.3862900
0.5059200
0.4900600
0.4863200
-0.5253800
-0.2947300
0.0739600
0.2628700
0.2669500
-0.3228000
-0.2020100
0.1395000
0.2283100
-0.1228700
0.1493500
0.2345400
-0.1653100
0.2436800
0.2730300
0.0648960
0.2227300
0.3606200
0.2075200
0.0612330
-0.1292300
0.1444700
0.6162100
0.0117690
-0.2497900
-0.6458100
-0.4610400
-0.4968400
-0.1010500
0.0504760
-0.2538300
-0.2363600
0.2825800
0.0910420
0.0259800
-0.0294070
0.0678300
-0.0268370
-0.0994580
-0.2415500
0.3674800
0.2888900
0.1984800
0.1070400
-0.2223000
-0.3918400
-0.3370500
-0.3810800
-0.1611900
-0.2987200
0.0609260
-0.0903150
-0.4087300
0.0793140
-0.1358400
0.0412620
-0.0188450
-0.6168600
0.0607180
0.0045374
0.2660500
-0.0383810
-0.1518800
-0.0403370
0.3973000
-0.5284300
-0.0641680
0.4639100
0.5079200
0.5146000
-0.0528510
0.0172870
0.7486500
0.4003700
0.5725800
-0.2666900
0.0644000
-0.1889100
-0.1599700
0.5520600
-0.1100000
0.1107300
0.3082300
-0.0876490
-0.0233390
0.4217200
0.3961700
-0.6198100
-0.2993100
-0.1663800
0.0124780
-0.9785700
-0.1906300
-0.2927700
0.0277120
-0.1680100
0.0686920
0.5552700
0.5059400
0.5684800
0.0530080
-0.1301300
-0.0802660
0.1537600
0.1763700
0.3552300
0.1731100
-0.0962200
-0.0713870
0.0878740
0.4245000
-0.0819150
-0.3212700
-0.5649400
-0.2091800
-0.0599000
-0.7306400
-0.0823330
0.1055700
0.2528000
-0.3402200
0.4490200
0.5003900
0.3730000
0.3507500
0.1183800
0.2953500
-0.2554500
-0.3576400
0.1145600
0.2484000
-0.2228200
-0.2769600
0.2710700
0.1621000
-0.4762500
-0.4387400
0.1465900
0.1692000
0.4063200
-0.3353800
0.4487600
0.1729300
-0.0572010
0.5600500
0.3367500
0.4956400
-0.5515900
0.3476900
0.2182200
-0.2516500
0.2219600
-0.0384430
-0.1804000
-0.2225800
-0.0474700
0.1039200
-0.3076700
-0.2069000
0.3715900
0.2074300
0.2623000
-0.3403900
-0.3125900
0.1892900
0.0424020
-0.5216200
-0.3600200
-0.4193100
0.1128100
-0.3565700
-0.3417400
-0.1450200
-0.6349200
-0.0804730
-0.0546670
-0.6538500
-0.3303100
0.2269100
-0.6633800
0.1075000
-0.1531400
-0.0500140
0.2280900
-0.3865700
-0.0940400
-0.0385170
0.1441300
0.3442400
-0.3080700
-0.0359950
-0.2128700
0.1093600
0.0012089
-0.4877000
0.0026393
0.3267500
-0.2592700
0.4542300
0.3903800
-0.3301000
0.3767200
-0.2343800
0.5016900
-0.1649400
-0.3129800
-0.1763400
0.2230900
-0.1254600
-0.4391500
-0.5623100
0.2624500
0.0991810
0.0285720
-0.0600000
0.0540850
0.1412300
0.2071900
0.3733000
-0.2806000
-0.3609700
0.3240400
0.0999560
0.0086331
-0.2189900
0.3358100
-0.3637800
-0.1127900
-0.0437090
-0.2787600
0.1369300
-0.1136400
-0.1082200
-0.3596700
0.1950800
0.2109600
0.3190900
-0.0703830
0.0696200
-0.0013985
-0.2552700
0.2026500
0.0452160
0.1057000
-0.0306390
-0.4466200
-0.1251000
-0.0579630
0.1706100
0.2072200
-0.3829000
-0.1596500
0.0078541
-0.2302100
0.5589400
-0.5498700
0.2064700
0.0187220
-0.2013400
-0.0717750
0.1945700
-0.0467520
0.0024180
-0.5495300
-0.1448100
0.1348700
-0.1857300
0.1510600
-0.3817800
-0.4441000
-0.0905910
0.0156720
0.0511020
0.0974650
-0.0709740
-0.1251700
0.0188190
0.0078802
-0.1359300
0.3790700
0.0754490
0.2226900
0.0343730
0.0543840
0.0933460
-0.4909600
-0.2445700
0.1413700
0.1904700
-0.0306050
-0.0125460
-0.1753900
-0.3524300
-0.0803630
0.1124100
-0.4390100
-0.4517800
-0.0731720
-0.2650400
-0.1856800
-0.0425290
0.4604700
-0.0757840
-0.0836950
-0.2378200
0.1091900
0.2756200
-0.0616770
-0.1627900
0.1583000
-0.4002300
-0.1706000
0.2387600
-0.0560830
0.0510850
-0.1856100
0.0105020
0.1635300
-0.3234600
0.0604520
0.2492500
0.2673900
0.4217800
-0.3238100
0.2876900
0.2477900
-0.0790950
-0.0471050
0.0223710
-0.5985200
0.0123340
0.0086809
0.4021700
0.4417400
0.0003023
-0.0035087
0.2988300
-0.0085448
0.0968340
-0.2110900
-0.3334000
0.1497000
0.0161600
0.7440500
0.2726100
-0.3868900
-0.2828200
0.1670600
0.3058800
0.3512700
0.1018900
-0.2430000
0.3403600
0.0572460
-0.1601400
-0.0466150
-0.2418100
-0.2307400
0.1257000
-0.3127600
0.3051200
0.0813680
-0.3521000
-0.0218820
0.3454800
0.1103900
-0.1970300
0.1447200
0.2183400
0.4081500
-0.5407500
-0.2541600
0.2393500
0.3371700
0.3547100
-0.2736900
-0.0027783
-0.0020368
-0.0353590
0.1066300
0.1686700
0.1278200
0.1673800
-0.2739100
-0.4012700
-0.3765400
-0.1890500
0.1605200
0.0767460
0.2494500
0.1677400
-0.0856030
-0.1076600
-0.1881100
-0.1213900
0.2828500
-0.0198100
0.1313900
-0.3518600
0.1636800
-0.0246880
-0.6220300
-0.3120900
-0.1571800
-0.0302630
0.3390900
-0.4217500
0.0306060
-0.2391600
-0.3351200
0.1967600
0.0334580
0.3504200
-0.2285600
-0.2508300
-0.1787200
-0.1446700
0.0434030
-0.0251590
-0.0613670
-0.0418500
-0.4358800
-0.2947100
0.0692340
-0.0125520
-0.0311340
-0.0733400
-0.2342700
0.1836600
0.1755500
0.1039400
0.1532900
-0.3805200
0.2274500
0.1817800
-0.0526110
-0.0034976
-0.4608400
0.0517300
0.1981900
-0.5191800
-0.2118600
-0.4837000
0.3905000
0.1767900
-0.1183900
-0.0288910
-0.2225300
0.3079000
-0.3060700
0.3536500
-0.0003711
-0.0716040
0.3620600
-0.3818100
0.3063100
0.5795900
-0.0315870
0.2118900
-0.1119200
0.5242900
0.1111800
-0.2735100
-0.4329300
-0.1642000
0.3716300
-0.0228500
-0.2218800
-0.1225700
0.0878590
-0.0092113
0.3190200
-0.1005300
-0.1970100
0.4012300
-0.0545340
-0.2665400
-0.2352000
0.2923800
0.1010200
0.3714200
-0.0127250
0.0707720
0.1208200
-0.0616970
0.1062800
-0.1271600
-0.2894800
-0.2021400
0.1968100
0.2421200
0.0386230
0.3957700
-0.0880420
-0.1497200
0.2607800
-0.3089700
-0.6027400
-0.2990100
-0.3139500
-0.3234500
-0.2467000
0.3552700
0.5906100
0.4732400
0.1684200
0.0263120
0.0222880
-0.0533190
0.1991600
0.2694900
0.0134660
0.1962100
0.2711500
0.1028000
0.2511500
0.2679000
-0.3621300
-0.5907000
-0.1940700
0.3835800
0.4780700
-0.5078400
-0.4646800
0.4163800
0.2536500
-0.4110000
0.0558700
-0.4588500
-0.1370900
0.1224100
-0.1546600
0.3120400
0.0111520
-0.0340910
0.0725870
0.0743170
-0.2399300
0.4679100
-0.1527500
-0.1149100
0.0321750
0.1915900
0.2188900
-0.0787380
-0.0700620
-0.0977000
-0.4654300
-0.1342800
0.3418900
0.0400520
-0.3386000
-0.2041600
-0.0379650
-0.1382000
-0.4656400
-0.3786200
-0.2095600
0.3694700
-0.0200630
-0.2780000
-0.3582700
0.0520200
0.1504200
-0.4613300
-0.1115200
-0.5108900
-0.0991760
-0.3701800
-0.1228800
-0.6000900
0.0151290
0.4174500
0.6718600
1.0841000
-0.4030000
-0.0356570
0.3463900
-0.1885600
0.3648800
0.1206500
-0.3735900
0.3305700
0.1950000
0.3724700
0.3880200
0.1515500
0.1412700
-0.0088651
0.3569600
0.2705800
-0.3059200
-0.0666170
-0.1821300
-0.8237500
-0.3023200
-0.2179100
0.0246210
0.1658200
-0.0617740
0.2570800
0.2034500
0.3462600
0.4898200
0.4403900
-0.0498300
-0.3511800
-0.2797600
-0.1869600
0.2598200
-0.3083400
-0.4881800
-0.2279400
0.0314980
0.0008234
0.0600360
-0.1198700
0.2517300
-0.0245720
0.1873000
-0.5374300
-0.1716500
-0.1002500
-0.0989510
0.1341200
-0.1848200
-0.5156100
0.2504000
0.1147400
-0.5576500
0.6241100
0.3806900
0.1417900
0.1778100
0.4230200
-0.0783110
-0.0009806
-0.1526300
0.2702600
-0.2159500
-0.3160700
-0.0596170
0.2911900
0.6839000
-0.1167200
-0.2159900
0.0851600
0.2046700
0.1607500
0.1485100
-0.0483730
-0.6218300
-0.2947500
-0.0380570
0.4694400
-0.1398100
-0.7198000
-0.3830900
0.0996900
0.4198200
0.2087900
0.0050078
-0.3849200
-0.2943400
-0.3174900
0.0745490
0.3987600
0.4824900
-0.4798400
-0.7232400
0.1853400
0.6176400
0.0590750
0.1055700
0.4630800
-0.0614830
0.0441760
0.2334100
0.3391500
0.1409200
0.0664980
0.1115000
0.1259500
0.3317300
-0.4595000
-0.0593050
-0.3594800
-0.1766100
-0.5009400
0.0161800
-0.0615720
0.1768900
0.4210500
-0.0508430
0.2055900
-0.4648100
0.6260500
0.4445100
-0.0468410
0.0147560
-0.1660500
0.1414700
0.2257600
-0.1511200
-0.4304600
0.2026300
0.0736400
-0.0037971
-0.1434700
-0.3008300
-0.0155180
-0.0701600
-0.6896900
-0.0927330
0.3893500
0.1344800
-0.0194940
0.1165000
0.2159700
-0.0471460
-0.1300900
-0.1431600
0.0079233
0.0295560
-0.3885500
-0.4656000
-0.3144800
0.2285900
0.0123430
0.3379800
0.0632040
0.1885100
-0.2682600
-0.1608000
-0.1824700
0.2514700
0.2929200
0.0106360
-0.4934600
-0.4219300
-0.2586000
-0.2239000
-0.1156000
-0.1235100
0.2787900
-0.1308600
0.1335900
0.2721100
0.7616300
0.2819500
0.0004383
0.2601100
0.0541380
-0.2551500
-0.0383920
-0.6141000
-0.5783900
0.1175300
0.1612100
-0.0803290
-0.2551100
-0.1474000
-0.1945900
-0.4587000
-0.5281300
0.0123360
-0.4551700
0.0111680
-0.1835000
-0.3633300
0.1445000
-0.2133400
-0.1518400
0.2140700
0.3206600
0.1802800
0.0173490
-0.2648800
-0.0797990
-0.1342300
0.5171000
-0.3021900
0.0866010
-0.1013000
-0.0435990
0.2000000
-0.1906000
-0.0576290
0.2801300
0.1365200
0.0886330
0.1167400
-0.1186600
0.1253800
0.0146700
-0.2575500
-0.4029100
0.3296700
-0.1615900
0.3919700
-0.0771710
-0.2122500
-0.2502800
0.2228300
-0.0648600
0.1461900
0.2556200
-0.0384230
0.2932000
-0.1434800
-0.2036800
0.2658700
-0.3903000
0.1071100
0.3828900
-0.0200820
-0.0079617
0.0490340
0.1856700
0.1308200
-0.4368000
-0.2998500
-0.2977100
-0.5248500
0.4040300
-0.0132470
-0.1498800
-0.3360800
-0.3732000
-0.3790700
0.0436160
-0.0335530
-0.0659960
0.1902200
0.1226100
0.0105210
0.0227300
0.4086000
0.6256600
-0.0760780
-0.1067300
0.1182600
0.3662000
0.6484400
0.7234500
-0.1619800
-0.7963000
-0.2322100
0.4507300
0.1944400
0.3545400
0.0574280
-0.1865200
-0.3816200
-0.0626770
-0.0476810
-0.0374380
0.1532500
0.1310600
-0.3716600
0.1215200
-0.0628270
-0.0515820
-0.5604800
-0.3119000
0.0747280
-0.2315300
-0.2562200
-0.4385900
-0.4918700
-0.4884600
-0.3381100
0.0030632
-0.1458200
-0.8391600
0.1680100
0.0459450
-0.2529100
0.1825000
-0.1493200
-0.3526100
0.0163420
0.1261600
-0.2037600
-0.1805700
-0.3735000
-0.1432900
0.2064800
0.2707800
-0.1339800
-0.1295500
0.1561800
0.2519900
-0.0423020
-0.0275880
-0.0863340
0.0125310
0.0795420
-0.1931400
-0.2255400
0.1379000
-0.1235400
-0.0272350
-0.3126300
-0.5707500
0.5478000
0.0200230
-0.5023100
-0.3264700
-0.3548900
0.4542600
0.0897230
0.1001300
-0.0322460
-0.0383920
-0.1955600
-0.1412200
0.5208600
0.2190100
0.0389820
0.3788500
-0.1625500
0.3131800
0.1467200
0.4984400
-0.0823540
-0.3952400
0.0944960
-0.1020300
-0.2446500
0.0744300
-0.3744600
0.1277400
0.1795100
-0.3048300
0.0656760
-0.3840400
-0.0072636
-0.4941900
-0.0450330
0.1325200
-0.2717300
-0.2255000
-0.2804100
-0.1796900
-0.0636620
-0.1143400
0.0647510
0.0179680
-0.2266900
-0.0993800
0.1549200
0.1593500
0.4747000
0.3966700
0.3732600
0.4094400
0.0033209
0.5555900
0.3456700
-0.0056981
0.4417400
0.1531100
0.6131200
0.5282500
0.2168600
0.0297830
0.1291000
0.4232800
-0.0634810
0.2393700
0.4411500
0.0732140
0.4691200
0.2480200
0.4951900
-0.0389250
-0.0733960
0.1421600
0.0998520
0.4238200
-0.0106480
-0.1378900
-0.2378900
-0.3297000
0.0033049
0.2854200
-0.0810500
-0.5406300
0.3492800
0.4188600
-0.0747690
-0.0952320
0.3099100
-0.3761400
-0.3871600
-0.4671300
-0.0681620
0.5216700
-0.0673250
-0.1047100
-0.8991500
-0.2975600
0.0567710
-0.1976900
-0.4034000
-0.2984000
-0.0326350
0.2261100
-0.2754900
0.0377510
0.3735000
0.4446000
-0.1368600
0.1324400
0.8175500
0.1174700
-0.1168400
0.2546700
0.3654200
-0.1620500
0.3729700
0.6585200
0.1116200
0.3581000
0.3647400
0.1787600
-0.7273300
-0.1330600
-0.3025600
0.1865500
0.4177800
-0.1131100
-0.1855500
-0.2839000
0.1996800
0.2928000
-0.1209800
-0.0022666
-0.2042500
0.2356500
-0.3849800
-0.1573500
0.0187940
-0.2892900
-0.1553000
-0.3978300
-0.1170800
0.2389400
-0.3805900
0.0750540
0.0908000
-0.1054700
-0.0130860
0.1350700
-0.0218330
0.0957230
0.2590800
0.1623500
0.4128300
-0.2125000
0.0520920
0.1586600
0.6619000
-0.1170200
-0.2548700
0.2202200
0.6303100
0.6741800
0.5237600
0.6954600
0.0935860
-0.3102600
-0.4204500
-0.1098600
-0.1080300
-0.0288760
-0.1163400
-0.3012300
-0.4109100
-0.0903360
-0.0660760
-0.0725320
0.2542600
0.4849800
-0.1580600
-0.2474300
-0.3840400
-0.0179780
0.0816340
-0.5117800
0.3735800
0.4893200
0.6329800
0.6236800
0.0384380
-0.3926000
-0.3625800
-0.3053100
0.1071100
0.0665210
-0.1683200
-0.2049300
-0.0775810
0.0856360
0.2240800
-0.3659800
-0.3225200
-0.0962630
0.2313400
0.0602130
0.0238180
-0.1271800
-0.0064116
-0.3871500
0.0647440
0.2745800
-0.3421100
-0.5062200
0.1034500
-0.1542000
-0.0592420
-0.2441400
-0.0990890
0.0488450
-0.0617230
0.1537400
-0.3563000
-0.2339000
-0.5112200
-0.1346200
0.4257500
0.5277200
0.0419520
0.4419700
-0.1602500
0.2727400
0.3177900
0.3422100
-0.0443770
0.2534200
0.1486000
0.8333400
0.6581000
0.0829100
-0.2837400
-0.2524700
-0.3185300
-0.4278300
-0.4066000
-0.1512900
0.4388700
0.5011100
-0.0128570
-0.3935100
0.0914870
0.4195100
0.2113400
0.1587800
-0.2974800
-0.1459100
0.5109200
0.5052400
-0.0415900
-0.7930700
-0.0191680
0.0424410
0.1957900
0.4753500
-0.4627900
0.2274900
0.1150600
0.0771580
-0.2015000
-0.0895860
-0.0107110
-0.0010216
-0.4844700
-0.0905620
0.1341000
0.2810200
0.0499810
0.1487300
0.1997600
-0.0240780
0.0045822
0.2069900
0.1801300
-0.5862400
0.1714700
-0.0283530
0.0456960
0.0339690
-0.0500690
0.9056800
0.4268600
0.0965040
-0.4094300
-0.1515000
0.2502400
0.2185900
0.4236700
-0.2192500
-0.2834700
0.0001553
-0.2427400
0.0710780
-0.1139000
0.3251600
0.4012300
-0.0268820
-0.0609520
-0.2776900
0.3240300
0.1005400
0.2142800
0.2841500
-0.2718100
0.0197610
0.5873900
0.2531600
0.1272500
-0.1388200
0.6569700
0.6466900
0.1071200
0.3317300
-0.2692300
-0.3090200
-0.2878000
-0.0614150
-0.1003600
-0.2670800
-0.0898520
-0.2527100
0.0281280
-0.2641000
-0.3365700
-0.3562800
-0.2341100
-0.0707750
-0.0274550
-0.2053300
-0.2295000
-0.5869700
0.0973870
0.1267900
-0.1767400
-0.2465400
-0.5518200
-0.5665700
-0.4745000
-0.3984400
-0.0976220
0.2883900
-0.3111800
-0.2917200
-0.4541600
-0.2669700
0.1777300
0.1655100
0.3950300
-0.3174500
-0.2573500
-0.0197650
0.2721800
0.0944860
0.1759000
0.2419700
-0.2987400
-0.1357100
-0.1228200
0.0346000
-0.1906400
0.2879200
-0.2661100
-0.2359000
-0.1444500
0.0657630
0.1655100
-0.4476200
0.0449600
-0.0045328
0.3047600
0.1291100
-0.0243610
0.0242730
-0.2341700
-0.0680330
0.1044900
0.2478200
0.0494160
-0.1182500
0.3091900
0.6305500
0.0390670
0.0988590
0.6489400
-0.0225430
-0.2476700
-0.3112600
-0.1001000
-0.1243800
-0.2689900
-0.1037900
-0.0789840
-0.0264600
-0.0467390
-0.0561740
0.2109900
0.3670300
0.3456000
-0.2954500
-0.8279899
-0.4748700
0.0781740
-0.0931380
0.0138670
0.0987230
0.3915200
-0.0484590
0.1175600
0.0628670
0.1838700
-0.0876570
-0.1854700
0.3193200
0.0160600
0.6378900
-0.1323200
0.2070900
0.1432800
0.2103800
0.2094800
-0.3385700
0.2649600
-0.4044100
0.0404990
0.1232100
0.1719900
0.0569190
-0.4756600
0.3902600
0.0450880
-0.0986480
0.1207900
0.4003700
0.2765400
-0.2056900
-0.2782500
-0.0402740
0.1068400
0.0513800
-0.0570290
-0.2290400
-0.1582500
0.1571800
0.0367610
0.2123200
-0.0712330
-0.2908400
-0.0013919
0.0703570
0.1535900
-0.1503100
-0.3052100
-0.3905100
-0.0112010
-0.0724320
0.2875300
0.1135700
-0.1951700
-0.2111800
0.4637500
0.0623210
-0.1480700
0.0378760
0.3127100
0.1165600
-0.1115800
0.2123400
-0.2338300
0.0032410
0.2351300
0.3093000
0.1019400
-0.2471200
0.0809490
0.1968300
0.1824900
0.1010400
0.2315900
0.1021700
-0.1557900
-0.1524000
0.0523380
0.1015400
0.2579700
-0.0217980
-0.0335270
-0.2492300
0.0301440
-0.0312760
-0.1951300
0.2020000
-0.1760700
-0.3031100
-0.1837300
-0.4592100
-0.1621400
0.1381200
-0.0117340
-0.1267800
-0.1831700
0.0903270
0.0286610
0.1450800
-0.0120350
0.0921620
0.1295500
0.4333300
-0.2604600
-0.3763200
-0.2606100
-0.0967660
-0.1759300
0.0846180
0.0483380
-0.0454940
0.0129150
0.0180180
-0.0797040
-0.0235950
0.1190900
0.5827400
0.2779800
0.3723800
-0.3300300
0.2579300
-0.0965160
0.2730600
0.3616800
-0.1098300
0.2495100
0.1360500
-0.1497800
-0.1725400
0.0387450
0.3817600
0.0165120
-0.1777000
0.0303010
0.1584800
-0.0100450
0.1198800
0.0486180
0.1733600
0.1284200
0.1208100
-0.4813800
-0.1384900
0.1542800
0.3288700
-0.2559100
-0.3910900
0.1430200
0.2197300
-0.1880500
0.2753000
0.4620000
-0.0861410
-0.0560820
-0.1842300
-0.1218500
0.0603780
-0.3465900
-0.3806000
-0.1469600
-0.1638700
0.2105300
-0.0283040
-0.0306860
0.1861200
-0.2654900
-0.8271100
0.2330100
-0.1328600
0.1784400
-0.2742600
-0.2928100
0.2426000
-0.0092651
-0.0265130
0.0081243
0.3958500
-0.1965700
-0.1935100
0.0904310
0.2653200
0.3785200
-0.3311000
0.0396570
0.0505060
-0.1249800
0.0694240
0.3693000
0.2288500
-0.0660850
-0.2130400
-0.3339700
-0.3314200
0.0688280
0.0485590
0.3047000
0.0478750
-0.1271200
0.0758610
0.2692900
0.3925200
0.3614300
-0.0747430
0.1694100
-0.2310600
-0.0147830
-0.4274900
-0.2840400
0.0491160
-0.0109590
0.0509900
-0.2865400
0.3421600
-0.1281000
0.4881200
-0.1716300
-0.1965500
-0.0064526
-0.1388400
0.3353300
0.0056742
-0.2185600
-0.1461900
-0.0826300
-0.2932000
-0.2298900
0.1426200
-0.1448800
-0.0439110
0.0587620
-0.0578930
-0.0234170
-0.1520800
0.0807090
-0.0480060
-0.1302000
-0.1069500
-0.4965300
-0.1018000
-0.3315700
-0.2153400
-0.2896000
-0.2041400
-0.3697400
0.1033600
0.2945800
0.3780200
0.1059000
0.1592200
-0.3019900
-0.2413700
-0.3553900
0.0386730
0.0867900
-0.0196760
-0.2242200
-0.2826100
-0.2080700
-0.1023400
0.1252800
0.1200800
0.0734310
0.0551880
-0.1845200
0.2706100
0.1220400
-0.3568100
0.1007100
0.2959900
-0.1474100
-0.1757300
-0.1501300
0.2070000
0.2308200
-0.0303540
0.2617400
0.0696890
-0.1226400
-0.0611230
-0.3546200
-0.2296500
-0.4633100
-0.0370420
0.0146560
-0.0185040
0.2163400
0.1381300
-0.1539400
-0.5168600
-0.4679700
-0.3025000
-0.3296600
-0.0785680
-0.2202300
-0.4416000
-0.5247300
-0.1651900
-0.3584000
-0.2797100
-0.3742000
-0.5138700
-0.0839070
-0.2737200
-0.0134490
-0.3228400
-0.4078100
-0.0379120
-0.0808690
-0.1459700
-0.1599700
-0.2085400
0.1880400
0.0020935
0.2802100
-0.1520000
-0.2767800
0.1907900
0.2491600
0.3795500
-0.1413200
0.1236400
0.2542500
-0.1967500
-0.3203500
-0.1601000
-0.2170900
-0.1461300
-0.2713500
0.0039062
0.3493900
-0.0208990
-0.1155800
-0.4000700
0.5760800
0.2890600
-0.0259450
-0.3787200
-0.0001448
0.0498740
0.5313000
0.2657600
-0.3913700
-0.0912360
-0.0538740
0.0703430
-0.2639500
-0.4930200
-0.4614700
-0.3057600
-0.0340790
-0.3053300
-0.0820050
-0.2680100
-0.1405100
-0.2633100
0.2024600
0.0518720
0.3344200
-0.2166200
-0.1714300
-0.0688070
0.1955800
0.2367700
-0.1037900
-0.4424700
-0.6237400
-0.3497700
0.2951600
-0.0618490
-0.0823890
-0.4373900
-0.2067300
0.2028900
0.0675300
0.5228000
0.5188300
-0.1039700
-0.1330000
0.2566300
0.3285300
-0.1952100
-0.2999800
0.1427600
-0.0545420
-0.1322300
-0.4552000
-0.3358300
-0.2642100
-0.3794000
-0.1346600
-0.2474200
-0.3612500
0.0166840
0.0213700
0.2527500
0.6193400
0.0385120
-0.1874800
-0.1218700
0.0401150
0.2283000
-0.4623400
-0.4230000
-0.3723300
-0.0128460
-0.0127400
-0.2147500
0.0636090
0.1581500
0.0212240
0.2732200
0.1545400
-0.0989190
-0.0076703
0.0666530
0.3357000
0.1579900
-0.6598000
-0.5121200
-0.2974600
-0.2717600
-0.1006700
-0.0075725
-0.2904100
0.4689900
-0.0429350
-0.0020562
0.3001700
0.5994600
0.0304470
-0.2066300
-0.1397400
-0.0392560
0.3053600
-0.1453500
0.0129320
0.0866440
0.0221570
-0.0031514
0.0672500
0.3171100
0.1722800
0.7758700
0.6888600
0.0748420
-0.3860100
-0.1189100
0.9252499
0.0932130
-0.2224200
-0.1054000
0.5261600
-0.1539900
0.0117220
0.2390400
0.0422460
-0.0471080
-0.1126100
0.2206000
0.2396300
0.1421400
-0.5614300
0.2581400
0.3073300
-0.3064800
-0.5171800
-0.9289700
0.4031300
0.3495700
-0.0091387
-0.3769300
-0.4721500
-0.1903600
0.0887890
-0.3442800
0.3988600
0.1267500
-0.2518100
-0.1992100
0.2594500
0.0305290
0.3782600
-0.0463790
0.0183630
-0.2408900
-0.0740950
0.0352960
-0.6821400
-0.1957600
0.0373120
0.1824700
0.0405490
-0.0437920
0.1844000
0.1353300
-0.1750100
-0.0189920
-0.1660600
-0.2729500
-0.1747800
-0.0039763
-0.0226150
0.1995100
-0.1041700
-0.1446600
-0.2786100
-0.3669700
0.7464000
0.4829200
0.0109720
0.1842600
-0.2184800
0.1820600
0.4153300
0.0502440
0.1310600
-0.5205400
-0.0701140
0.4743900
-0.4562500
0.2753400
-0.0474960
-0.3104400
0.3225900
-0.2734600
0.1301500
0.0782080
0.0580750
-0.0879720
0.6756100
0.4499700
-0.1717700
-0.1883700
-0.0736700
-0.1911200
0.3705000
0.2564300
0.0060920
0.2702500
0.0820960
0.1725300
0.7718000
0.5469500
0.3622400
0.4378800
0.4131400
0.2867900
0.3448200
-0.3374100
0.0252780
-0.2042300
-0.5124800
-0.4666200
-0.3807000
-0.4331800
-0.2677500
-0.1988500
0.0171150
0.0133670
-0.0078168
0.0575860
0.1354000
0.2361400
-0.1066100
-0.1878000
0.0513360
0.2632600
-0.3036500
-0.0265120
0.2434000
0.1924300
-0.4575200
0.8903100
0.4095700
-0.2027200
0.0263430
0.2772200
0.3141500
-0.3335200
-0.0705600
0.0648650
0.2817800
-0.0356420
-0.0390750
-0.1093600
-0.5657000
0.1228700
-0.2332800
-0.2948400
0.2405600
-0.0024953
0.2727700
-0.3356200
-0.4332500
-0.1134100
-0.5557600
-0.1774500
0.3484300
-0.0343440
-0.4543800
-0.0938570
0.4156800
0.7308900
0.1825800
0.0434090
0.0064104
-0.0144810
0.4134000
-0.0996410
-0.0834870
-0.0696010
-0.2166100
0.0253790
0.5169500
0.4136000
0.0281010
-0.1918700
0.3731900
0.4035400
