0.1961500
0.3114800
-0.2927400
-0.0123120
-0.4028700
-0.1619400
-0.1051600
-0.2012400
0.0650020
0.2491100
-0.0838280
-0.2784600
-0.3588500
0.1861500
0.2224100
0.0133310
-0.4000100
0.1411600
-0.4594000
0.3552700
-0.3905700
0.3667500
-0.2278100
-0.5589600
-0.1252800
0.1873900
-0.1808900
0.1715800
0.1879000
0.2798500
-0.3259700
0.1575700
0.2241200
0.1799100
0.1192300
-0.0249640
-0.1405400
0.2433400
0.1083900
0.2754100
0.2378800
-0.0175610
-0.0991950
-0.4518900
-0.0580850
0.0318370
-0.4703900
-0.3267200
0.1530700
0.2982500
0.0397200
-0.3926900
-0.0123250
0.0262450
-0.1265600
-0.1496700
-0.2742400
-0.3734700
0.3224700
-0.5017000
-0.7144100
0.2190300
-0.4474900
0.2741000
-0.1415200
0.0718060
0.0945700
-0.2988700
-0.1677900
-0.1429900
-0.4025600
-0.2571000
-0.1638600
0.0523520
0.1776400
-0.3141300
0.1128200
-0.0635120
0.3028800
-0.0961930
-0.2960300
0.2467600
-0.6188000
0.2147500
-0.0049159
0.2662200
-0.6711700
-0.7230100
0.0945100
-0.2597900
0.1573600
0.1695600
-0.2356300
0.2402000
0.0571990
-0.3318000
0.1800000
-0.0775040
-0.5877300
-0.1914100
-0.1539300
-0.1247600
0.0558440
0.4738100
-0.1684400
-0.0253380
-0.2632000
0.0825890
-0.0759870
-0.3578900
-0.7228100
-0.0256340
-0.3583900
0.2816800
0.0744790
0.1126400
-0.2427500
0.2409100
-0.2030400
0.1289000
0.0783010
-0.0732540
0.2156400
0.0259040
0.3581400
-0.2483300
-0.2994400
0.2304500
0.2594900
0.0006227
-0.4112400
-0.8147900
0.0221320
-1.0716000
-0.3406100
-0.5629500
0.2755700
0.0337430
-0.5082400
0.3527000
-0.1950800
-0.3447900
-0.0105840
-0.4343100
-0.1139100
0.2841400
-0.1681800
0.2039200
-0.1015100
-0.1820400
-0.6505300
0.3258300
-0.0652600
-0.1584600
-0.0388860
0.0988780
0.2553100
0.2334900
0.0980280
-0.9567400
-0.0616910
-0.0357870
-0.1412200
0.0398030
0.0740080
-0.1971600
-0.2597800
-0.4086600
0.0703590
-0.1050600
0.1950800
-0.3923300
-0.1502500
-0.0062499
0.1944500
0.2013400
-0.1061900
-0.6866600
-0.0919970
-0.2471000
-0.4295400
-0.0773630
0.0341520
0.4519700
-0.0590340
-0.5444900
-0.5766600
0.0044167
0.1728500
-0.1245300
0.3081900
0.0116840
0.1564200
0.0862170
-0.1716300
-0.1103500
-0.7104600
0.1409600
-0.2584600
0.1355000
-0.2296000
0.1614800
0.2543900
-0.4432500
0.1478800
0.0793080
-0.0334040
-0.3585100
-0.0960610
-0.5094000
-0.1155100
0.0895800
0.1396900
0.1432000
-0.7723000
-0.2675900
-0.2386500
0.0035080
-0.5314800
0.1370100
0.2692900
0.4655200
-0.3307300
-0.3859200
-0.3060200
-0.0050343
0.1179600
-0.3152900
0.2145800
-0.2752500
-0.8415300
0.2304300
-0.4010600
-0.1170500
0.4504200
0.4107200
-0.2471800
0.0265570
0.1290900
0.1515700
0.4036800
-0.3227900
0.0457420
-0.0555860
0.1587900
-0.1601200
0.3422200
-0.3650700
-0.4687700
-0.4375200
0.1385000
-0.0037785
0.1542300
-0.3468400
0.0532250
0.2120400
-0.1202600
0.1196800
0.0441910
-0.1532700
-0.2086200
-0.3009700
0.0425460
0.1539200
-0.3107400
-0.3323500
0.0281840
0.1311300
-0.6454800
-0.1333700
0.3002800
-0.4320300
0.0853110
0.0495650
0.3121300
-0.3979300
-0.7946900
-0.3148800
0.1337400
-0.2743400
0.2682200
-0.5732700
0.0213800
-0.0380950
-0.3175900
-0.0406390
0.6365400
0.1888800
-0.1202200
0.0517430
0.1303500
-0.5473700
-0.3516700
-0.3701200
0.1163500
-0.2746800
-0.5782400
0.0315060
0.2827500
0.2979300
-0.0681830
0.3903200
-0.1606800
-0.4021000
-0.0473400
0.1646300
-0.6411500
-0.2717600
0.1583200
-0.2040200
-0.0151290
0.2326400
-0.3584200
-0.0402080
-0.0947960
0.1803100
0.0397130
-0.0038262
-0.1605800
-0.1624500
-0.4996800
0.2081900
0.1829500
-0.0876820
-0.7528900
0.0422510
0.1744400
0.1531000
0.0792570
-0.1405100
0.3302400
-0.3160200
-0.4624200
0.1663300
0.1759000
0.1469600
-0.0943170
-0.0096756
0.2758400
-0.2820000
-0.0157290
-0.1437000
0.3247000
0.1154400
-0.1676000
-0.1400500
-0.4079300
0.0193160
-0.5094200
-0.3565600
-0.1720700
-0.1369000
-0.5002400
0.2077000
0.2170900
0.1898200
-0.4278200
0.0178420
0.2565600
0.2908100
-0.1138300
-0.1381700
0.2442900
-0.1058100
-0.3533600
0.0117110
-0.1406100
-0.4505000
0.0129490
-0.0472200
0.1879100
-0.2518300
-0.2416000
0.2882800
0.0484520
-0.1444300
-0.5489400
0.2499600
0.2128200
0.0996050
0.1425300
-0.3156000
-0.2781100
-0.3751700
-0.4429000
-0.4177500
0.2732000
0.2696900
0.3123400
-0.2555000
-0.1091500
-0.1188600
0.0737210
0.2533500
0.1656200
-0.3082100
0.0934850
-0.4872300
-0.3228200
-0.1421600
0.1963700
-0.3343400
0.2121900
-0.6001900
0.2693400
-0.5259700
-0.1730000
0.3020000
0.1693700
-0.2783400
-0.2760100
0.1224300
0.1229500
0.0479040
-0.4695800
-0.2207800
0.0563650
-0.2716200
-0.4146700
0.1983200
0.2738700
-0.1652300
-0.5386800
-0.2924200
-0.2421500
-0.4206400
-0.4984700
-0.0170870
0.2902400
0.0750070
-0.0734890
0.3082000
-0.0235060
-0.2939600
-0.0386730
0.3489700
0.0411910
0.0412060
0.1883800
0.0846890
0.3167100
0.1793800
0.1137200
0.2034900
-0.1935200
0.2018200
0.2458500
0.3147200
0.2323100
0.0385880
-0.3102800
-0.1293000
-0.1308400
0.1597100
-0.1967800
0.2736300
0.1507700
0.0531200
-0.2833600
-0.0291740
0.3871000
-0.1426200
0.0000487
-0.6610400
-0.1950300
-0.0178010
-0.5436800
0.1010500
0.4076300
0.0413080
-0.1995600
0.2433700
0.0210760
-0.3742600
-0.2644200
-0.1942200
0.5831300
0.2979400
0.0253110
-0.5090400
-0.3455000
-0.0363770
-0.0723500
-0.4750300
-0.0391630
-0.0616150
0.4564600
0.2631200
-0.5592100
0.1062900
-0.2861300
0.3099700
-0.3105500
-0.2834700
-0.2119400
0.2075600
0.2024300
-0.2577900
0.2382600
-0.6056000
-0.2257700
0.2746800
0.3668800
0.0930500
0.1472600
-0.5885800
-0.4190600
-0.4112500
-0.5582000
-0.0335340
-0.0528740
-0.0411820
0.2416400
-0.2735100
-0.5263500
0.2413900
0.1104600
0.0796150
0.2087600
-0.3336700
-0.4509700
0.2505900
0.0153770
0.2624000
-0.1150700
-0.4406000
-0.4559400
-0.1641800
-0.0661780
0.3567500
0.3465400
0.0677270
-0.5834400
-0.0272740
-0.2225900
0.4394700
0.1646900
0.0762650
-0.3873200
0.2654100
-0.5260300
-0.8563000
0.2712300
-0.0575010
0.0703900
0.1157100
0.1395400
0.2013900
0.1321400
-0.3801100
-0.3469700
-0.1024100
0.3514500
0.0996720
-0.6233500
0.2922300
-0.4615600
0.4056600
-0.4139400
-0.2857800
-0.3056300
-0.2478700
-0.0810660
-0.3875100
0.2070600
-0.1358600
-0.9168900
-0.6669800
0.0369750
0.0672060
-0.1866800
0.1515100
-0.2567100
0.0808570
-0.0038288
-0.7661800
-0.3106400
0.0844830
0.1449500
-0.0424550
0.2262900
-0.2147300
-0.1146600
0.3116800
0.1229400
-0.0991490
-0.3132700
-0.0874690
-0.1841300
0.2203400
0.1739100
-0.2396200
0.2549400
-0.2013900
-0.1276500
-0.0667090
-0.3813400
-0.2506200
-0.7779700
-0.0395950
-0.3984700
0.1269800
-0.0646360
0.3214300
0.1017800
0.0229860
0.0917130
-0.0305810
0.0881010
0.0037339
-0.1805900
0.1150600
-0.3283600
0.0267900
0.0963220
0.0513310
-0.6368800
-0.2105500
-0.0171920
0.0088711
0.1144200
-0.4898500
0.0453050
0.2020100
-0.0913850
-0.0373400
-0.1472800
-0.2582800
0.2065400
0.2487800
-0.3487000
-0.2957000
-0.2995300
0.2236000
-0.9144600
0.2961700
-0.0748390
0.2225400
-0.1637900
0.1558500
-0.3824100
-0.0782590
0.0860710
-0.3225400
0.0252600
-0.0478790
-0.1178500
-0.1863700
-0.1987200
-0.1214600
-0.3090100
0.1569300
-0.2467300
-0.2037800
0.1912700
0.2212100
-0.2526100
0.1169000
-0.0052031
0.2380500
0.2231200
-0.1047800
0.1735400
0.3321800
0.2578400
-0.1998000
0.0929920
-0.1818000
0.1321800
0.1594100
0.0665380
-0.3095700
-0.1608400
0.1628800
0.0226470
-0.3144100
0.2803600
-0.1200000
-0.2525000
-0.3259500
0.3120500
0.1535700
-0.4833900
0.0936040
0.0748470
-0.3281000
0.0679140
0.4580300
-0.2405400
0.4565700
-0.1598700
0.0227480
0.2134300
-0.3382600
-0.1685300
0.2508500
-0.1421400
0.1108100
0.2131100
0.0965460
-0.4572700
0.2624800
-0.1743300
-0.2379500
0.1672800
0.0370090
0.2861600
0.4591300
-0.1167500
-0.2589300
-0.3320100
0.1344600
-0.0726590
0.0127660
-0.2091100
-0.2394100
0.0259120
0.0008170
-0.2757800
-0.6317000
0.1298800
0.2602200
-0.4610400
0.0284160
0.2937300
0.1816900
-0.1059500
-0.2483200
0.0065648
0.0453190
-0.3206400
-0.3871200
-0.1523300
0.4066800
0.1267600
0.1758600
0.1859000
-0.2672600
0.1281900
-0.2441700
-0.3885400
0.1872100
0.2556300
0.1161100
0.2886900
0.2258400
-0.0716650
-0.3787400
0.0395940
-0.0956170
-0.8012800
-0.0890100
-0.4816300
-0.1011200
-0.1897200
0.2782600
-0.2947900
-0.3756800
-0.2300400
0.1558400
0.1891000
-0.2953900
-0.1490600
-0.7190400
-0.1356900
0.0042512
0.4373600
-0.2807900
-0.2274700
-0.4470900
0.1300700
0.1376000
-0.2519100
-0.1225300
-0.6822600
0.0587540
0.1615400
0.5255900
-0.2746900
-0.1671700
0.0936020
-0.2148100
-0.3291400
0.1984000
-0.2224000
0.2068900
0.1274400
-0.8839800
-0.0040819
-0.0127670
0.2032700
0.0760980
-0.3011000
-0.0486670
0.2074900
0.1140000
-0.4727000
-0.0893570
0.2106000
-0.1940400
-0.6505700
-0.1590400
-0.1670000
-0.3548400
0.1179900
-0.0132010
0.2991400
0.0468270
0.0141860
0.0481700
-0.2450900
-0.4286500
-0.2048000
-0.2314600
-0.1799500
-0.3637100
-0.2958500
0.0238230
-0.3387900
-0.0082270
0.2987600
-0.2696300
0.0330710
-0.0457380
-0.5307000
0.0438430
0.3444400
-0.7356900
0.1045500
-0.2077900
-0.1882700
-0.1491300
-0.6545700
0.0401920
-0.0536510
-0.0127220
-0.4270700
-0.1410100
-0.1182900
-0.2859400
0.1593600
-0.1958300
0.0991370
-0.3259000
-0.7366900
-0.3993300
0.1489700
0.1076500
-0.3490200
-0.3405100
-0.2529000
-0.2767900
0.1935000
-0.1204300
-0.7871900
-0.5226300
0.2650600
-0.3023800
0.3848100
-0.0081044
-0.1667000
0.0387320
-0.1594300
0.0022994
0.0738730
-0.1364900
0.1692100
0.1650000
-0.0069403
0.0613220
0.2914700
0.3204200
0.1444400
-0.9915100
0.0740110
-0.2229100
0.3401300
0.3450200
0.2348600
-0.0758120
-0.3079100
0.2617300
0.1214200
0.1362700
-0.1275200
0.2211100
-0.0355760
-0.0968900
-0.6568700
-0.4895100
-0.6134500
-0.4859800
-0.0752720
-0.2093200
0.0974550
-0.2803000
0.0667080
-0.2003600
0.1794700
-0.1849200
-0.0879120
0.3178600
0.6205700
0.3111100
0.1316600
-0.6467800
-0.2502800
-0.3322100
-0.2509200
0.1237100
-0.1530500
-0.3972900
0.2463400
-0.4913900
-0.2062200
0.2916700
0.0177290
0.1474100
0.1940200
0.3069300
-0.2766300
-0.3319100
0.2787100
-0.1447200
-0.4974600
-0.4848300
0.1589300
0.0643490
-0.2273500
0.4303100
-0.4793400
-0.2609700
0.2177000
0.0439270
-0.3520400
-0.0166880
0.2461500
-0.0335490
0.0557420
-0.7831000
-0.1324600
-0.0825880
-0.2879600
-0.2733000
-0.2117700
-0.0388600
-0.3098400
-0.1728700
0.1112300
-0.1670900
0.1425900
-0.1621100
0.2934100
-0.1051600
-0.1806300
0.1983700
-0.0866030
-0.1272400
-0.0489230
-0.2112300
-0.2747500
-0.4267800
-0.1295700
-0.0517660
-0.1349200
0.2105900
-0.2126300
-0.1163500
0.2009900
-0.0786070
0.2369700
-0.1584500
0.0486110
-0.0477910
0.1858100
-0.7717200
0.0177810
0.2724800
-0.3291200
-0.3972200
0.2178600
-0.3755400
0.0879680
0.2620800
0.3699100
0.2106000
0.0263570
-0.1968500
0.1626900
-0.2119900
-0.0013884
-0.0586760
-0.2606800
-0.0389930
0.0366300
-0.2299300
-0.2741500
0.1529000
-0.0948350
0.1244200
-0.1388400
-0.2935600
-0.3012300
0.0553480
0.0774400
-0.1863300
-0.1827800
-0.2591900
0.0875280
-0.2855100
-0.2537600
0.1368200
0.3316600
0.2587300
-0.2944900
0.0211770
-0.3057300
-0.0579600
0.0593870
-0.4317100
0.2126800
-0.0339070
-0.1687300
-0.5142400
0.3371800
0.1298400
0.1625300
0.2960200
-0.1548900
-0.5505200
0.2317100
0.0095917
0.3574800
0.2795800
0.2380100
-0.1050900
0.0818310
-0.3534100
-0.0389410
0.1243500
-0.6023500
0.2748600
-0.6607600
0.0032388
-0.3277800
0.1347800
0.1981500
-0.2640000
-0.1180900
-0.4074400
0.2522500
0.4260600
0.0521430
0.2238300
0.5204100
0.2048400
-0.2858600
-0.0549500
-0.2855100
0.4384200
-0.4279600
-0.3069100
0.1943000
0.0014127
0.2389000
0.1457800
-0.0112490
0.0435720
0.0705800
0.3481900
0.3157600
-0.1644300
-0.6222800
0.0315230
-0.3619700
-0.6422500
0.0151790
-0.2983000
0.2300600
0.1923600
-0.6234700
-0.1477300
-0.0857950
0.2179000
-0.0850660
-0.1464200
-0.5009300
0.1340700
0.2867100
-0.3253000
0.0228020
0.3161300
0.2499900
-0.2772200
0.2197300
0.2344200
-0.1752800
-0.3502100
-0.2273900
-0.2479800
0.0480010
0.1194400
-0.5891500
-0.0491360
-0.5608800
-0.5103300
-0.3545300
-0.4450600
-0.2718500
0.0662220
0.0123610
0.0204080
0.0084532
0.3062400
-0.0550670
-0.2352900
0.0930090
-0.2338200
-0.2991400
0.0863050
-0.4797000
0.1889000
0.1730700
0.0810640
0.0416980
0.2625100
-0.1912200
0.3648000
0.2912400
0.1025700
-0.2117400
0.0591830
0.3854000
0.0827600
0.1761300
-0.3032500
0.5546300
0.0912960
-0.0754860
-0.0307570
-0.2577900
-0.4028800
0.0361200
-0.4422200
-0.4441900
0.1355900
0.2069000
0.2364100
-0.3151200
0.2802600
-0.0584960
-0.4071600
-0.4223900
-0.1852300
-0.0122200
-0.6060500
0.0116120
-0.2252400
0.0282470
-0.2610100
0.1055300
-0.6048500
0.0115940
-0.0073726
0.4474400
0.1156900
-0.7125600
-0.2122000
0.0713520
-0.4601300
0.0373680
-0.0820690
0.0544220
-0.4190600
-0.0665690
-0.2689300
0.1671300
0.0030757
0.2526000
-0.2767100
-0.3823100
0.2367300
-0.3067700
-0.0120190
0.2164700
0.0831650
-0.1163000
-0.0438720
-0.2844100
0.0619540
0.2781200
-0.1472900
0.2148900
-0.2337100
-0.3869700
-0.4459200
0.2152800
0.1285200
0.0190350
0.3996700
